tree
version=v4
num_class=1
num_tree_per_iteration=1
label_index=0
max_feature_idx=4
objective=binary sigmoid:1
feature_names=Column_0 Column_1 Column_2 Column_3 Column_4
feature_infos=[24.928812427202971:84.197991634338081] [9.0702764126891591:163.84212325531237] [8.153216262026044:59.746422178128803] [0.85456540674176995:1.0576697828411592] [0.0048619216805611994:0.070000351729825536]
tree_sizes=352 356 357 355 357 357 356 355 355 357 358 358 359 359 358 359 359 358 358 360 357 359 359 358 358 359 358 359 360 359 359 361 360 360 361 358 361 357 361 359 361 359 357 360 363 359 363 359 361 361 361 361 360 360 359 362 361 360 360 358 363 361 360 358 361 360 364 361 362 363 362 362 362 361 360 362 361 362 358 364 362 360 362 360 362 362 364 362 364 364 362 360 356 361 364 365 363 362 363 365 365 365 365 363 364 366 365 364 364 362 365 362 365 365 363 360 365 364 364 364 364 366 363 366 365 363 364 364 360 365 364 365 363 363 364 366 362 365 365 364 362 363 362 365 363 363 363 365 364 365 366 360 363 364 363 364 365 362 365 365 361 364 366 363 365 366 365 363 365 363 362 360 364 361 366 362 364 363 365 366 364 363 361 362 365 363 364 364 362 364 365 364 364 362 365 366 363 362 363 366

Tree=0
num_leaves=2
num_cat=0
split_feature=4
split_gain=4.84102
threshold=0.01028459611725588
decision_type=2
left_child=-1
right_child=-2
leaf_value=-0.37728681635920308 -0.43347826326322281
leaf_weight=7.3758679330348969 6.494791567325592
leaf_count=24 24
internal_value=-0.402543
internal_weight=13.8707
internal_count=48
is_linear=0
shrinkage=1


Tree=1
num_leaves=2
num_cat=0
split_feature=4
split_gain=4.38227
threshold=0.01028459611725588
decision_type=2
left_child=-1
right_child=-2
leaf_value=0.04321050335630279 -0.010181450636550777
leaf_weight=7.4425177276134491 6.4802614152431488
leaf_count=24 24
internal_value=0.0193426
internal_weight=13.9228
internal_count=48
is_linear=0
shrinkage=0.05


Tree=2
num_leaves=2
num_cat=0
split_feature=0
split_gain=2.37488
threshold=58.821882995633864
decision_type=2
left_child=-1
right_child=-2
leaf_value=-0.0033288476427483951 0.036291829698541021
leaf_weight=6.6630116701126099 7.3023532927036285
leaf_count=24 24
internal_value=0.0184291
internal_weight=13.9654
internal_count=48
is_linear=0
shrinkage=0.05


Tree=3
num_leaves=2
num_cat=0
split_feature=4
split_gain=3.9612
threshold=0.01028459611725588
decision_type=2
left_child=-1
right_child=-2
leaf_value=0.040121009046150027 -0.010448178088816774
leaf_weight=7.5205538421869278 6.4884708821773529
leaf_count=24 24
internal_value=0.0175636
internal_weight=14.009
internal_count=48
is_linear=0
shrinkage=0.05


Tree=4
num_leaves=2
num_cat=0
split_feature=4
split_gain=3.59789
threshold=0.01028459611725588
decision_type=2
left_child=-1
right_child=-2
leaf_value=0.038146109820022707 -0.010015305525188367
leaf_weight=7.5649905651807785 6.4740608334541321
leaf_count=24 24
internal_value=0.0167475
internal_weight=14.0391
internal_count=48
is_linear=0
shrinkage=0.05


Tree=5
num_leaves=2
num_cat=0
split_feature=0
split_gain=2.14333
threshold=58.821882995633864
decision_type=2
left_child=-1
right_child=-2
leaf_value=-0.0045107744173266354 0.032860800026363872
leaf_weight=6.6840869337320328 7.3777915239334106
leaf_count=24 24
internal_value=0.0159767
internal_weight=14.0619
internal_count=48
is_linear=0
shrinkage=0.05


Tree=6
num_leaves=2
num_cat=0
split_feature=4
split_gain=3.26471
threshold=0.01028459611725588
decision_type=2
left_child=-1
right_child=-2
leaf_value=0.035555180085745583 -0.010197785046395935
leaf_weight=7.6136033833026886 6.4784110188484192
leaf_count=24 24
internal_value=0.0152395
internal_weight=14.092
internal_count=48
is_linear=0
shrinkage=0.05


Tree=7
num_leaves=2
num_cat=0
split_feature=0
split_gain=1.9447
threshold=58.821882995633864
decision_type=2
left_child=-1
right_child=-2
leaf_value=-0.004907799638650524 0.030580062175151024
leaf_weight=6.6862474083900452 7.4191080629825592
leaf_count=24 24
internal_value=0.0145468
internal_weight=14.1054
internal_count=48
is_linear=0
shrinkage=0.05


Tree=8
num_leaves=2
num_cat=0
split_feature=4
split_gain=2.96795
threshold=0.01028459611725588
decision_type=2
left_child=-1
right_child=-2
leaf_value=0.033211520652126743 -0.01032090531983856
leaf_weight=7.647808626294136 6.4797824919223785
leaf_count=24 24
internal_value=0.0138825
internal_weight=14.1276
internal_count=48
is_linear=0
shrinkage=0.05


Tree=9
num_leaves=2
num_cat=0
split_feature=4
split_gain=2.70541
threshold=0.01028459611725588
decision_type=2
left_child=-1
right_child=-2
leaf_value=0.031668897660182771 -0.0098932555049242657
leaf_weight=7.6675005555152893 6.4654856622219086
leaf_count=24 24
internal_value=0.0132579
internal_weight=14.133
internal_count=48
is_linear=0
shrinkage=0.05


Tree=10
num_leaves=2
num_cat=0
split_feature=3
split_gain=1.78779
threshold=1.0053494836418713
decision_type=2
left_child=-1
right_child=-2
leaf_value=-0.0078079853155791001 0.026424409709858855
leaf_weight=5.8547760546207437 8.2791343033313733
leaf_count=21 27
internal_value=0.0126652
internal_weight=14.1339
internal_count=48
is_linear=0
shrinkage=0.05


Tree=11
num_leaves=2
num_cat=0
split_feature=4
split_gain=2.48274
threshold=0.01028459611725588
decision_type=2
left_child=-1
right_child=-2
leaf_value=0.029710038414488833 -0.010040131067456104
leaf_weight=7.6832198053598404 6.4675741791725159
leaf_count=24 24
internal_value=0.0120788
internal_weight=14.1508
internal_count=48
is_linear=0
shrinkage=0.05


Tree=12
num_leaves=2
num_cat=0
split_feature=4
split_gain=2.26636
threshold=0.01028459611725588
decision_type=2
left_child=-1
right_child=-2
leaf_value=0.028364650428880568 -0.0096239628771695035
leaf_weight=7.6924420148134232 6.4534966796636581
leaf_count=24 24
internal_value=0.0115428
internal_weight=14.1459
internal_count=48
is_linear=0
shrinkage=0.05


Tree=13
num_leaves=2
num_cat=0
split_feature=4
split_gain=2.06975
threshold=0.01028459611725588
decision_type=2
left_child=-1
right_child=-2
leaf_value=0.027091429930838302 -0.0092247906816095605
leaf_weight=7.6981018632650375 6.4397424161434174
leaf_count=24 24
internal_value=0.0110329
internal_weight=14.1378
internal_count=48
is_linear=0
shrinkage=0.05


Tree=14
num_leaves=2
num_cat=0
split_feature=4
split_gain=1.89094
threshold=0.01028459611725588
decision_type=2
left_child=-1
right_child=-2
leaf_value=0.025884832604880337 -0.0088419113505264543
leaf_weight=7.7006304264068604 6.4263219386339188
leaf_count=24 24
internal_value=0.0105475
internal_weight=14.127
internal_count=48
is_linear=0
shrinkage=0.05


Tree=15
num_leaves=2
num_cat=0
split_feature=4
split_gain=1.72817
threshold=0.01028459611725588
decision_type=2
left_child=-1
right_child=-2
leaf_value=0.024739937451761302 -0.0084746601457530678
leaf_weight=7.7004171907901764 6.4132427275180817
leaf_count=24 24
internal_value=0.0100851
internal_weight=14.1137
internal_count=48
is_linear=0
shrinkage=0.05


Tree=16
num_leaves=2
num_cat=0
split_feature=0
split_gain=1.63699
threshold=58.821882995633864
decision_type=2
left_child=-1
right_child=-2
leaf_value=-0.0078391060386266056 0.024422607021605897
leaf_weight=6.6731561124324799 7.4251658320426941
leaf_count=24 24
internal_value=0.00964437
internal_weight=14.0983
internal_count=48
is_linear=0
shrinkage=0.05


Tree=17
num_leaves=2
num_cat=0
split_feature=4
split_gain=1.57908
threshold=0.01028459611725588
decision_type=2
left_child=-1
right_child=-2
leaf_value=0.023245511099065523 -0.0084861495139705086
leaf_weight=7.6913339048624039 6.4097092598676682
leaf_count=24 24
internal_value=0.0092149
internal_weight=14.101
internal_count=48
is_linear=0
shrinkage=0.05


Tree=18
num_leaves=2
num_cat=0
split_feature=3
split_gain=1.59065
threshold=1.0053494836418713
decision_type=2
left_child=-1
right_child=-2
leaf_value=-0.010202906376189397 0.021898957898436409
leaf_weight=5.8302419036626825 8.2526520341634733
leaf_count=21 27
internal_value=0.00881363
internal_weight=14.0829
internal_count=48
is_linear=0
shrinkage=0.05


Tree=19
num_leaves=2
num_cat=0
split_feature=4
split_gain=1.45613
threshold=0.01028459611725588
decision_type=2
left_child=-1
right_child=-2
leaf_value=0.021911011245082702 -0.0085435733462794605
leaf_weight=7.6784599125385284 6.4077350497245789
leaf_count=24 24
internal_value=0.00840936
internal_weight=14.0862
internal_count=48
is_linear=0
shrinkage=0.05


Tree=20
num_leaves=2
num_cat=0
split_feature=3
split_gain=1.46415
threshold=1.0053494836418713
decision_type=2
left_child=-1
right_child=-2
leaf_value=-0.010182181256132992 0.020610019933758657
leaf_weight=5.8174771666526803 8.248340427875517
leaf_count=21 27
internal_value=0.00804415
internal_weight=14.0658
internal_count=48
is_linear=0
shrinkage=0.05


Tree=21
num_leaves=2
num_cat=0
split_feature=4
split_gain=1.34344
threshold=0.01028459611725588
decision_type=2
left_child=-1
right_child=-2
leaf_value=0.020674998090254353 -0.008568617081694218
leaf_weight=7.6621609032154083 6.4040654003620148
leaf_count=24 24
internal_value=0.00767595
internal_weight=14.0662
internal_count=48
is_linear=0
shrinkage=0.05


Tree=22
num_leaves=2
num_cat=0
split_feature=0
split_gain=1.28817
threshold=58.821882995633864
decision_type=2
left_child=-1
right_child=-2
leaf_value=-0.0080936164067287718 0.020496089524055704
leaf_weight=6.6380210071802139 7.4060766249895096
leaf_count=24 24
internal_value=0.00734324
internal_weight=14.0441
internal_count=48
is_linear=0
shrinkage=0.05


Tree=23
num_leaves=2
num_cat=0
split_feature=3
split_gain=1.25578
threshold=1.0053494836418713
decision_type=2
left_child=-1
right_child=-2
leaf_value=-0.0098497859662689813 0.018669581818437388
leaf_weight=5.7978896796703348 8.2409242540597898
leaf_count=21 27
internal_value=0.0070196
internal_weight=14.0388
internal_count=48
is_linear=0
shrinkage=0.05


Tree=24
num_leaves=2
num_cat=0
split_feature=4
split_gain=1.23989
threshold=0.01028459611725588
decision_type=2
left_child=-1
right_child=-2
leaf_value=0.019243563493623161 -0.008834045600117215
leaf_weight=7.6326266527175903 6.402845174074173
leaf_count=24 24
internal_value=0.00669919
internal_weight=14.0355
internal_count=48
is_linear=0
shrinkage=0.05


Tree=25
num_leaves=2
num_cat=0
split_feature=3
split_gain=1.15803
threshold=1.0053494836418713
decision_type=2
left_child=-1
right_child=-2
leaf_value=-0.0097771539257430901 0.017615232462549073
leaf_weight=5.7841417789459237 8.2273303866386396
leaf_count=21 27
internal_value=0.00640923
internal_weight=14.0115
internal_count=48
is_linear=0
shrinkage=0.05


Tree=26
num_leaves=2
num_cat=0
split_feature=4
split_gain=1.14481
threshold=0.01028459611725588
decision_type=2
left_child=-1
right_child=-2
leaf_value=0.018202427166844479 -0.008782518285511123
leaf_weight=7.6109763532876968 6.395383819937706
leaf_count=24 24
internal_value=0.00611678
internal_weight=14.0064
internal_count=48
is_linear=0
shrinkage=0.05


Tree=27
num_leaves=2
num_cat=0
split_feature=3
split_gain=1.06844
threshold=1.0053494836418713
decision_type=2
left_child=-1
right_child=-2
leaf_value=-0.0096843766362068161 0.016635785123603027
leaf_weight=5.7700755894184121 8.2113815844058973
leaf_count=21 27
internal_value=0.00585221
internal_weight=13.9815
internal_count=48
is_linear=0
shrinkage=0.05


Tree=28
num_leaves=2
num_cat=0
split_feature=4
split_gain=1.05739
threshold=0.01028459611725588
decision_type=2
left_child=-1
right_child=-2
leaf_value=0.017231763022800245 -0.0087111289186333242
leaf_weight=7.5879330635070801 6.3869612962007523
leaf_count=24 24
internal_value=0.00558511
internal_weight=13.9749
internal_count=48
is_linear=0
shrinkage=0.05


Tree=29
num_leaves=2
num_cat=0
split_feature=3
split_gain=0.986241
threshold=1.0053494836418713
decision_type=2
left_child=-1
right_child=-2
leaf_value=-0.0095741805331483482 0.015724480974098464
leaf_weight=5.7557733356952676 8.1935827583074552
leaf_count=21 27
internal_value=0.0053436
internal_weight=13.9494
internal_count=48
is_linear=0
shrinkage=0.05


Tree=30
num_leaves=2
num_cat=0
split_feature=4
split_gain=0.976965
threshold=0.01028459611725588
decision_type=2
left_child=-1
right_child=-2
leaf_value=0.0163254731192898 -0.0086225011389530187
leaf_weight=7.5638932138681412 6.3777200728654861
leaf_count=24 24
internal_value=0.00509953
internal_weight=13.9416
internal_count=48
is_linear=0
shrinkage=0.05


Tree=31
num_leaves=2
num_cat=0
split_feature=4
split_gain=0.894678
threshold=0.01028459611725588
decision_type=2
left_child=-1
right_child=-2
leaf_value=0.015629399460940965 -0.0082643544555264965
leaf_weight=7.5505993813276291 6.3650659024715424
leaf_count=24 24
internal_value=0.00487898
internal_weight=13.9157
internal_count=48
is_linear=0
shrinkage=0.05


Tree=32
num_leaves=2
num_cat=0
split_feature=3
split_gain=0.919282
threshold=1.0053494836418713
decision_type=2
left_child=-1
right_child=-2
leaf_value=-0.0097116368202639705 0.014733520035695689
leaf_weight=5.7336977571249017 8.1560451090335828
leaf_count=21 27
internal_value=0.00466802
internal_weight=13.8897
internal_count=48
is_linear=0
shrinkage=0.05


Tree=33
num_leaves=2
num_cat=0
split_feature=3
split_gain=0.840976
threshold=1.0053494836418713
decision_type=2
left_child=-1
right_child=-2
leaf_value=-0.0093080371841884821 0.014080312413855964
leaf_weight=5.7267389446496972 8.1541347652673704
leaf_count=21 27
internal_value=0.00445406
internal_weight=13.8809
internal_count=48
is_linear=0
shrinkage=0.05


Tree=34
num_leaves=2
num_cat=0
split_feature=4
split_gain=0.835099
threshold=0.01028459611725588
decision_type=2
left_child=-1
right_child=-2
leaf_value=0.014686993010607921 -0.0084054975416239016
leaf_weight=7.5140829682350159 6.3573410660028458
leaf_count=24 24
internal_value=0.00425004
internal_weight=13.8714
internal_count=48
is_linear=0
shrinkage=0.05


Tree=35
num_leaves=2
num_cat=0
split_feature=3
split_gain=0.777219
threshold=1.0053494836418713
decision_type=2
left_child=-1
right_child=-2
leaf_value=-0.0091592777274575581 0.013340396745262537
leaf_weight=5.7121235281229028 8.1330654919147474
leaf_count=21 27
internal_value=0.004066
internal_weight=13.8452
internal_count=48
is_linear=0
shrinkage=0.05


Tree=36
num_leaves=2
num_cat=0
split_feature=4
split_gain=0.772236
threshold=0.01028459611725588
decision_type=2
left_child=-1
right_child=-2
leaf_value=0.013943611312540537 -0.0082780798865789273
leaf_weight=7.4888085573911667 6.3463423401117325
leaf_count=24 24
internal_value=0.00387937
internal_weight=13.8352
internal_count=48
is_linear=0
shrinkage=0.05


Tree=37
num_leaves=2
num_cat=0
split_feature=3
split_gain=0.71855
threshold=1.0053494836418713
decision_type=2
left_child=-1
right_child=-2
leaf_value=-0.0090013639945573688 0.012648421067780809
leaf_weight=5.6975087523460397 8.1114744544029218
leaf_count=21 27
internal_value=0.0037112
internal_weight=13.809
internal_count=48
is_linear=0
shrinkage=0.05


Tree=38
num_leaves=2
num_cat=0
split_feature=4
split_gain=0.714286
threshold=0.01028459611725588
decision_type=2
left_child=-1
right_child=-2
leaf_value=0.013246214597196583 -0.0081414027391243163
leaf_weight=7.4635444730520248 6.3349521905183792
leaf_count=24 24
internal_value=0.00354044
internal_weight=13.7985
internal_count=48
is_linear=0
shrinkage=0.05


Tree=39
num_leaves=2
num_cat=0
split_feature=0
split_gain=0.664713
threshold=58.821882995633864
decision_type=2
left_child=-1
right_child=-2
leaf_value=-0.0076200960339630605 0.012997765561939073
leaf_weight=6.5166126042604446 7.255892276763916
leaf_count=24 24
internal_value=0.00338675
internal_weight=13.7725
internal_count=48
is_linear=0
shrinkage=0.05


Tree=40
num_leaves=2
num_cat=0
split_feature=4
split_gain=0.660732
threshold=0.0097668375095472468
decision_type=2
left_child=-1
right_child=-2
leaf_value=0.015087680285804079 -0.00571359090796816
leaf_weight=5.6266571730375299 8.1329598575830442
leaf_count=18 30
internal_value=0.00323849
internal_weight=13.7596
internal_count=48
is_linear=0
shrinkage=0.05


Tree=41
num_leaves=2
num_cat=0
split_feature=3
split_gain=0.626985
threshold=1.0053494836418713
decision_type=2
left_child=-1
right_child=-2
leaf_value=-0.0087550046399955186 0.011497147967236507
leaf_weight=5.6706846654415139 8.0703376382589322
leaf_count=21 27
internal_value=0.00311248
internal_weight=13.741
internal_count=48
is_linear=0
shrinkage=0.05


Tree=42
num_leaves=2
num_cat=0
split_feature=3
split_gain=0.573873
threshold=1.0053494836418713
decision_type=2
left_child=-1
right_child=-2
leaf_value=-0.0083913749416984502 0.010991193777231177
leaf_weight=5.6640990823507318 8.065891966223715
leaf_count=21 27
internal_value=0.00296837
internal_weight=13.73
internal_count=48
is_linear=0
shrinkage=0.05


Tree=43
num_leaves=2
num_cat=0
split_feature=4
split_gain=0.625198
threshold=0.01028459611725588
decision_type=2
left_child=-1
right_child=-2
leaf_value=0.011973588621769986 -0.0080661659592906436
leaf_weight=7.406210795044899 6.3126195222139359
leaf_count=24 24
internal_value=0.00283091
internal_weight=13.7188
internal_count=48
is_linear=0
shrinkage=0.05


Tree=44
num_leaves=2
num_cat=0
split_feature=4
split_gain=0.583875
threshold=0.0097668375095472468
decision_type=2
left_child=-1
right_child=-2
leaf_value=0.013896904572601447 -0.0056899541127378656
leaf_weight=5.5898990929126748 8.1033829152584058
leaf_count=18 30
internal_value=0.00270745
internal_weight=13.6933
internal_count=48
is_linear=0
shrinkage=0.05


Tree=45
num_leaves=2
num_cat=0
split_feature=3
split_gain=0.538832
threshold=1.0053494836418713
decision_type=2
left_child=-1
right_child=-2
leaf_value=-0.0083966021228376129 0.01040715744764689
leaf_weight=5.6435496956110009 8.0311952829360944
leaf_count=21 27
internal_value=0.00260351
internal_weight=13.6747
internal_count=48
is_linear=0
shrinkage=0.05


Tree=46
num_leaves=2
num_cat=0
split_feature=4
split_gain=0.543372
threshold=0.0097668375095472468
decision_type=2
left_child=-1
right_child=-2
leaf_value=0.013301877764049029 -0.0056097182819593253
leaf_weight=5.5707617998123178 8.0927050411701185
leaf_count=18 30
internal_value=0.00248208
internal_weight=13.6635
internal_count=48
is_linear=0
shrinkage=0.05


Tree=47
num_leaves=2
num_cat=0
split_feature=4
split_gain=0.506173
threshold=0.01028459611725588
decision_type=2
left_child=-1
right_child=-2
leaf_value=0.010645867576313828 -0.0074220861559089251
leaf_weight=7.36192686855793 6.2831555306911469
leaf_count=24 24
internal_value=0.00238741
internal_weight=13.6451
internal_count=48
is_linear=0
shrinkage=0.05


Tree=48
num_leaves=2
num_cat=0
split_feature=3
split_gain=0.505829
threshold=1.0053494836418713
decision_type=2
left_child=-1
right_child=-2
leaf_value=-0.0083704255040841346 0.0098711952483750004
leaf_weight=5.6231530755758286 7.9975745975971222
leaf_count=21 27
internal_value=0.00228294
internal_weight=13.6207
internal_count=48
is_linear=0
shrinkage=0.05


Tree=49
num_leaves=2
num_cat=0
split_feature=4
split_gain=0.473735
threshold=0.0097668375095472468
decision_type=2
left_child=-1
right_child=-2
leaf_value=0.012310059812608326 -0.0053764989440969069
leaf_weight=5.5421565920114526 8.067257344722746
leaf_count=18 30
internal_value=0.0021756
internal_weight=13.6094
internal_count=48
is_linear=0
shrinkage=0.05


Tree=50
num_leaves=2
num_cat=0
split_feature=3
split_gain=0.469588
threshold=1.0053494836418713
decision_type=2
left_child=-1
right_child=-2
leaf_value=-0.0081726310320985734 0.0094167347745309684
leaf_weight=5.6105848103761673 7.9808511286973953
leaf_count=21 27
internal_value=0.00209331
internal_weight=13.5914
internal_count=48
is_linear=0
shrinkage=0.05


Tree=51
num_leaves=2
num_cat=0
split_feature=4
split_gain=0.443474
threshold=0.01028459611725588
decision_type=2
left_child=-1
right_child=-2
leaf_value=0.0097609265374024746 -0.0071777322711730276
leaf_weight=7.318805068731308 6.2613388895988464
leaf_count=24 24
internal_value=0.00199445
internal_weight=13.5801
internal_count=48
is_linear=0
shrinkage=0.05


Tree=52
num_leaves=2
num_cat=0
split_feature=0
split_gain=0.444247
threshold=58.821882995633864
decision_type=2
left_child=-1
right_child=-2
leaf_value=-0.0070745645469485465 0.0098677773458524121
leaf_weight=6.4224680662155151 7.134189248085022
leaf_count=24 24
internal_value=0.00190673
internal_weight=13.5567
internal_count=48
is_linear=0
shrinkage=0.05


Tree=53
num_leaves=2
num_cat=0
split_feature=2
split_gain=0.445684
threshold=28.709098242363986
decision_type=2
left_child=-1
right_child=-2
leaf_value=0.011038692050516764 -0.0059963374454948884
leaf_weight=6.0274731069803238 7.5162093192338943
leaf_count=21 27
internal_value=0.00182265
internal_weight=13.5437
internal_count=48
is_linear=0
shrinkage=0.05


Tree=54
num_leaves=2
num_cat=0
split_feature=0
split_gain=0.416744
threshold=58.821882995633864
decision_type=2
left_child=-1
right_child=-2
leaf_value=-0.0069448459878555914 0.0094671041834359579
leaf_weight=6.4184380173683167 7.1285630762577057
leaf_count=24 24
internal_value=0.0017484
internal_weight=13.547
internal_count=48
is_linear=0
shrinkage=0.05


Tree=55
num_leaves=2
num_cat=0
split_feature=4
split_gain=0.418342
threshold=0.0097668375095472468
decision_type=2
left_child=-1
right_child=-2
leaf_value=0.011248675050875501 -0.0054053243487129296
leaf_weight=5.500290736556054 8.0338144004344922
leaf_count=18 30
internal_value=0.00167117
internal_weight=13.5341
internal_count=48
is_linear=0
shrinkage=0.05


Tree=56
num_leaves=2
num_cat=0
split_feature=3
split_gain=0.389507
threshold=1.0053494836418713
decision_type=2
left_child=-1
right_child=-2
leaf_value=-0.0077371854233269245 0.0083124314001072775
leaf_weight=5.5803073644638062 7.9362577199935913
leaf_count=21 27
internal_value=0.00160981
internal_weight=13.5166
internal_count=48
is_linear=0
shrinkage=0.05


Tree=57
num_leaves=2
num_cat=0
split_feature=2
split_gain=0.423891
threshold=28.709098242363986
decision_type=2
left_child=-1
right_child=-2
leaf_value=0.010540065847001961 -0.0060871187457388551
leaf_weight=6.0133782774209976 7.4920778274536133
leaf_count=21 27
internal_value=0.00153247
internal_weight=13.5055
internal_count=48
is_linear=0
shrinkage=0.05


Tree=58
num_leaves=2
num_cat=0
split_feature=2
split_gain=0.387844
threshold=28.709098242363986
decision_type=2
left_child=-1
right_child=-2
leaf_value=0.010084623921162808 -0.0058182689830023702
leaf_weight=6.0158044099807739 7.4925518482923508
leaf_count=21 27
internal_value=0.00147086
internal_weight=13.5084
internal_count=48
is_linear=0
shrinkage=0.05


Tree=59
num_leaves=2
num_cat=0
split_feature=0
split_gain=0.376617
threshold=58.821882995633864
decision_type=2
left_child=-1
right_child=-2
leaf_value=-0.0068418007791435287 0.00877217799494091
leaf_weight=6.402187243103981 7.1085838079452515
leaf_count=24 24
internal_value=0.00141175
internal_weight=13.5108
internal_count=48
is_linear=0
shrinkage=0.05


Tree=60
num_leaves=2
num_cat=0
split_feature=4
split_gain=0.388612
threshold=0.0097668375095472468
decision_type=2
left_child=-1
right_child=-2
leaf_value=0.010616495200724786 -0.0054510411058530323
leaf_weight=5.4750960916280755 8.0229644924402219
leaf_count=18 30
internal_value=0.00134903
internal_weight=13.4981
internal_count=48
is_linear=0
shrinkage=0.05


Tree=61
num_leaves=2
num_cat=0
split_feature=4
split_gain=0.36097
threshold=0.01028459611725588
decision_type=2
left_child=-1
right_child=-2
leaf_value=0.0083712045153393286 -0.0069453877345783191
leaf_weight=7.2499407082796097 6.2308826595544815
leaf_count=24 24
internal_value=0.00130108
internal_weight=13.4808
internal_count=48
is_linear=0
shrinkage=0.05


Tree=62
num_leaves=2
num_cat=0
split_feature=2
split_gain=0.36264
threshold=28.709098242363986
decision_type=2
left_child=-1
right_child=-2
leaf_value=0.0095921707077043748 -0.0058057146162096042
leaf_weight=5.9957527220249176 7.4630261659622192
leaf_count=21 27
internal_value=0.00124288
internal_weight=13.4588
internal_count=48
is_linear=0
shrinkage=0.05


Tree=63
num_leaves=2
num_cat=0
split_feature=3
split_gain=0.360583
threshold=1.0053494836418713
decision_type=2
left_child=-1
right_child=-2
leaf_value=-0.00778680163094694 0.007674977762857936
leaf_weight=5.5581166297197342 7.9026615470647812
leaf_count=21 27
internal_value=0.00119364
internal_weight=13.4608
internal_count=48
is_linear=0
shrinkage=0.05


Tree=64
num_leaves=2
num_cat=0
split_feature=2
split_gain=0.338474
threshold=28.709098242363986
decision_type=2
left_child=-1
right_child=-2
leaf_value=0.0092048998937680013 -0.0056738474826762489
leaf_weight=5.9933286011219025 7.4564745128154755
leaf_count=21 27
internal_value=0.00113442
internal_weight=13.4498
internal_count=48
is_linear=0
shrinkage=0.05


Tree=65
num_leaves=2
num_cat=0
split_feature=0
split_gain=0.34112
threshold=58.821882995633864
decision_type=2
left_child=-1
right_child=-2
leaf_value=-0.0067597557790706492 0.0081235019420109519
leaf_weight=6.3754914849996567 7.0759886652231216
leaf_count=24 24
internal_value=0.00108977
internal_weight=13.4515
internal_count=48
is_linear=0
shrinkage=0.05


Tree=66
num_leaves=2
num_cat=0
split_feature=4
split_gain=0.338255
threshold=0.0097668375095472468
decision_type=2
left_child=-1
right_child=-2
leaf_value=0.0097247433655525024 -0.0052928346727414942
leaf_weight=5.4421989470720291 7.9968577921390533
leaf_count=18 30
internal_value=0.00104092
internal_weight=13.4391
internal_count=48
is_linear=0
shrinkage=0.05


Tree=67
num_leaves=2
num_cat=0
split_feature=3
split_gain=0.317853
threshold=1.0053494836418713
decision_type=2
left_child=-1
right_child=-2
leaf_value=-0.0074293037342749949 0.0071037506827107124
leaf_weight=5.5406579673290253 7.8818159550428391
leaf_count=21 27
internal_value=0.00100549
internal_weight=13.4225
internal_count=48
is_linear=0
shrinkage=0.05


Tree=68
num_leaves=2
num_cat=0
split_feature=2
split_gain=0.322496
threshold=28.709098242363986
decision_type=2
left_child=-1
right_child=-2
leaf_value=0.0088484377022766229 -0.0056897656609643877
leaf_weight=5.9781296253204346 7.4336430132389069
leaf_count=21 27
internal_value=0.000954781
internal_weight=13.4118
internal_count=48
is_linear=0
shrinkage=0.05


Tree=69
num_leaves=2
num_cat=0
split_feature=4
split_gain=0.316953
threshold=0.01028459611725588
decision_type=2
left_child=-1
right_child=-2
leaf_value=0.0075823458066612811 -0.0067949002080316678
leaf_weight=7.2047035545110703 6.2085069566965103
leaf_count=24 24
internal_value=0.000917895
internal_weight=13.4132
internal_count=48
is_linear=0
shrinkage=0.05


Tree=70
num_leaves=2
num_cat=0
split_feature=0
split_gain=0.302101
threshold=58.821882995633864
decision_type=2
left_child=-1
right_child=-2
leaf_value=-0.0065135906123805687 0.0075170443378683865
leaf_weight=6.3478947430849075 7.0442775189876556
leaf_count=24 24
internal_value=0.000876033
internal_weight=13.3922
internal_count=48
is_linear=0
shrinkage=0.05


Tree=71
num_leaves=2
num_cat=0
split_feature=4
split_gain=0.29601
threshold=0.0097668375095472468
decision_type=2
left_child=-1
right_child=-2
leaf_value=0.0089892002147254242 -0.005085768583646174
leaf_weight=5.4119453728199005 7.9682139903306961
leaf_count=18 30
internal_value=0.00083643
internal_weight=13.3802
internal_count=48
is_linear=0
shrinkage=0.05


Tree=72
num_leaves=2
num_cat=0
split_feature=2
split_gain=0.301555
threshold=28.709098242363986
decision_type=2
left_child=-1
right_child=-2
leaf_value=0.0084587919231274757 -0.0056191805306241467
leaf_weight=5.9582351744174957 7.4060342460870743
leaf_count=21 27
internal_value=0.000809177
internal_weight=13.3643
internal_count=48
is_linear=0
shrinkage=0.05


Tree=73
num_leaves=2
num_cat=0
split_feature=3
split_gain=0.289449
threshold=1.0053494836418713
decision_type=2
left_child=-1
right_child=-2
leaf_value=-0.0072723161062281313 0.0066191191016519635
leaf_weight=5.5163627564907074 7.8490561991930008
leaf_count=21 27
internal_value=0.00077853
internal_weight=13.3654
internal_count=48
is_linear=0
shrinkage=0.05


Tree=74
num_leaves=2
num_cat=0
split_feature=2
split_gain=0.281412
threshold=28.709098242363986
decision_type=2
left_child=-1
right_child=-2
leaf_value=0.0081311679071697264 -0.0054718069759574842
leaf_weight=5.9552014321088791 7.3997990190982819
leaf_count=21 27
internal_value=0.00073785
internal_weight=13.355
internal_count=48
is_linear=0
shrinkage=0.05


Tree=75
num_leaves=2
num_cat=0
split_feature=4
split_gain=0.275559
threshold=0.01028459611725588
decision_type=2
left_child=-1
right_child=-2
leaf_value=0.0069475117162677239 -0.006480531341499134
leaf_weight=7.1701831966638565 6.1857305616140366
leaf_count=24 24
internal_value=0.000710167
internal_weight=13.3559
internal_count=48
is_linear=0
shrinkage=0.05


Tree=76
num_leaves=2
num_cat=0
split_feature=3
split_gain=0.273538
threshold=1.0053494836418713
decision_type=2
left_child=-1
right_child=-2
leaf_value=-0.0071510737372647466 0.0063650965320248849
leaf_weight=5.503759890794754 7.8321874290704727
leaf_count=21 27
internal_value=0.000677239
internal_weight=13.3359
internal_count=48
is_linear=0
shrinkage=0.05


Tree=77
num_leaves=2
num_cat=0
split_feature=2
split_gain=0.262939
threshold=28.709098242363986
decision_type=2
left_child=-1
right_child=-2
leaf_value=0.0077970773953529374 -0.0053632374515627272
leaf_weight=5.9435476809740067 7.3821597099304199
leaf_count=21 27
internal_value=0.000641076
internal_weight=13.3257
internal_count=48
is_linear=0
shrinkage=0.05


Tree=78
num_leaves=2
num_cat=0
split_feature=0
split_gain=0.26174
threshold=58.821882995633864
decision_type=2
left_child=-1
right_child=-2
leaf_value=-0.00626215092888771 0.0068230554076990513
leaf_weight=6.3156349062919617 7.010764479637146
leaf_count=24 24
internal_value=0.000617481
internal_weight=13.3264
internal_count=48
is_linear=0
shrinkage=0.05


Tree=79
num_leaves=2
num_cat=0
split_feature=4
split_gain=0.26052
threshold=0.0097668375095472468
decision_type=2
left_child=-1
right_child=-2
leaf_value=0.0082730000624722071 -0.0049591333940142736
leaf_weight=5.3769564777612686 7.9379388093948364
leaf_count=18 30
internal_value=0.000589046
internal_weight=13.3149
internal_count=48
is_linear=0
shrinkage=0.05


Tree=80
num_leaves=2
num_cat=0
split_feature=2
split_gain=0.245841
threshold=28.709098242363986
decision_type=2
left_child=-1
right_child=-2
leaf_value=0.0074993715856873965 -0.0052360128948045872
leaf_weight=5.9324152767658234 7.3673015683889389
leaf_count=21 27
internal_value=0.000571862
internal_weight=13.2997
internal_count=48
is_linear=0
shrinkage=0.05


Tree=81
num_leaves=2
num_cat=0
split_feature=0
split_gain=0.247931
threshold=58.821882995633864
decision_type=2
left_child=-1
right_child=-2
leaf_value=-0.0061472158502364578 0.006598499825384737
leaf_weight=6.302593469619751 6.9976229071617126
leaf_count=24 24
internal_value=0.000551159
internal_weight=13.3002
internal_count=48
is_linear=0
shrinkage=0.05


Tree=82
num_leaves=2
num_cat=0
split_feature=4
split_gain=0.240728
threshold=0.01028459611725588
decision_type=2
left_child=-1
right_child=-2
leaf_value=0.0063794886687668917 -0.006196663776835646
leaf_weight=7.1305124014616013 6.1584070324897766
leaf_count=24 24
internal_value=0.000525601
internal_weight=13.2889
internal_count=48
is_linear=0
shrinkage=0.05


Tree=83
num_leaves=2
num_cat=0
split_feature=3
split_gain=0.232086
threshold=1.0053494836418713
decision_type=2
left_child=-1
right_child=-2
leaf_value=-0.0067185573916438901 0.0057573166942659253
leaf_weight=5.4741276204586029 7.7958985865116119
leaf_count=21 27
internal_value=0.000500628
internal_weight=13.27
internal_count=48
is_linear=0
shrinkage=0.05


Tree=84
num_leaves=2
num_cat=0
split_feature=2
split_gain=0.235674
threshold=28.709098242363986
decision_type=2
left_child=-1
right_child=-2
leaf_value=0.0072672654296498471 -0.0052168601622810014
leaf_weight=5.9167214184999466 7.3435648828744888
leaf_count=21 27
internal_value=0.000472532
internal_weight=13.2603
internal_count=48
is_linear=0
shrinkage=0.05


Tree=85
num_leaves=2
num_cat=0
split_feature=0
split_gain=0.217748
threshold=58.821882995633864
decision_type=2
left_child=-1
right_child=-2
leaf_value=-0.0058255306110251122 0.0061340764910284267
leaf_weight=6.2833584845066071 6.9773124754428864
leaf_count=24 24
internal_value=0.000456081
internal_weight=13.2607
internal_count=48
is_linear=0
shrinkage=0.05


Tree=86
num_leaves=2
num_cat=0
split_feature=4
split_gain=0.229231
threshold=0.0097668375095472468
decision_type=2
left_child=-1
right_child=-2
leaf_value=0.0076695114024662924 -0.004769233393871683
leaf_weight=5.3450410068035126 7.9047984033823013
leaf_count=18 30
internal_value=0.000434693
internal_weight=13.2498
internal_count=48
is_linear=0
shrinkage=0.05


Tree=87
num_leaves=2
num_cat=0
split_feature=2
split_gain=0.220196
threshold=28.709098242363986
decision_type=2
left_child=-1
right_child=-2
leaf_value=0.0069983989066142414 -0.0050782946861013404
leaf_weight=5.9058991372585297 7.3294884562492371
leaf_count=21 27
internal_value=0.000423637
internal_weight=13.2354
internal_count=48
is_linear=0
shrinkage=0.05


Tree=88
num_leaves=2
num_cat=0
split_feature=4
split_gain=0.225859
threshold=0.010020014880123372
decision_type=2
left_child=-1
right_child=-2
leaf_value=-0.0061998815962413583 0.0060143702749865281
leaf_weight=6.0251962393522263 7.2104158848524094
leaf_count=21 27
internal_value=0.000409192
internal_weight=13.2356
internal_count=48
is_linear=0
shrinkage=0.05


Tree=89
num_leaves=2
num_cat=0
split_feature=4
split_gain=0.226135
threshold=0.0097668375095472468
decision_type=2
left_child=-1
right_child=-2
leaf_value=0.0075787668804732505 -0.004775556910229079
leaf_weight=5.3426045030355453 7.9088008850812912
leaf_count=18 30
internal_value=0.000387655
internal_weight=13.2514
internal_count=48
is_linear=0
shrinkage=0.05


Tree=90
num_leaves=2
num_cat=0
split_feature=4
split_gain=0.223782
threshold=0.010020014880123372
decision_type=2
left_child=-1
right_child=-2
leaf_value=-0.0061984805006873251 0.0059587972242233422
leaf_weight=6.0249881744384766 7.2120293080806732
leaf_count=21 27
internal_value=0.00037856
internal_weight=13.237
internal_count=48
is_linear=0
shrinkage=0.05


Tree=91
num_leaves=2
num_cat=0
split_feature=4
split_gain=0.2274
threshold=0.01028459611725588
decision_type=2
left_child=-1
right_child=-2
leaf_value=0.0060675296363376895 -0.006168213234592935
leaf_weight=7.1065948605537415 6.1461217999458313
leaf_count=24 24
internal_value=0.000358402
internal_weight=13.2527
internal_count=48
is_linear=0
shrinkage=0.05


Tree=92
num_leaves=2
num_cat=0
split_feature=3
split_gain=0.209088
threshold=1.0053494836418713
decision_type=2
left_child=-1
right_child=-2
leaf_value=-0.006511424427337 0.0053432377449714324
leaf_weight=5.4576059132814407 7.77668596804142
leaf_count=21 27
internal_value=0.000340565
internal_weight=13.2343
internal_count=48
is_linear=0
shrinkage=0.05


Tree=93
num_leaves=2
num_cat=0
split_feature=2
split_gain=0.205623
threshold=28.709098242363986
decision_type=2
left_child=-1
right_child=-2
leaf_value=0.0066789351624375135 -0.004994304481844924
leaf_weight=5.9033345878124237 7.3215348571538925
leaf_count=21 27
internal_value=0.000319627
internal_weight=13.2249
internal_count=48
is_linear=0
shrinkage=0.05


Tree=94
num_leaves=2
num_cat=0
split_feature=4
split_gain=0.218749
threshold=0.010020014880123372
decision_type=2
left_child=-1
right_child=-2
leaf_value=-0.0061915126657203562 0.0058326389374203091
leaf_weight=6.0190448313951492 7.2058978825807571
leaf_count=21 27
internal_value=0.000309564
internal_weight=13.2249
internal_count=48
is_linear=0
shrinkage=0.05


Tree=95
num_leaves=2
num_cat=0
split_feature=4
split_gain=0.228972
threshold=0.0097668375095472468
decision_type=2
left_child=-1
right_child=-2
leaf_value=0.0075389354049568529 -0.0048969750512903197
leaf_weight=5.3362677842378616 7.9041001945734024
leaf_count=18 30
internal_value=0.000292518
internal_weight=13.2404
internal_count=48
is_linear=0
shrinkage=0.05


Tree=96
num_leaves=2
num_cat=0
split_feature=4
split_gain=0.217125
threshold=0.010020014880123372
decision_type=2
left_child=-1
right_child=-2
leaf_value=-0.0061882748770108742 0.0057907046964366408
leaf_weight=6.0188493728637695 7.2071014195680618
leaf_count=21 27
internal_value=0.000287526
internal_weight=13.226
internal_count=48
is_linear=0
shrinkage=0.05


Tree=97
num_leaves=2
num_cat=0
split_feature=4
split_gain=0.228212
threshold=0.01028459611725588
decision_type=2
left_child=-1
right_child=-2
leaf_value=0.0060006441375505615 -0.0062606537553984033
leaf_weight=7.0975606143474579 6.1437420845031738
leaf_count=24 24
internal_value=0.00027147
internal_weight=13.2413
internal_count=48
is_linear=0
shrinkage=0.05


Tree=98
num_leaves=2
num_cat=0
split_feature=4
split_gain=0.214734
threshold=0.010020014880123372
decision_type=2
left_child=-1
right_child=-2
leaf_value=-0.0061800159587033447 0.0057336583629188156
leaf_weight=6.0190918743610382 7.203798919916153
leaf_count=21 27
internal_value=0.000257309
internal_weight=13.2229
internal_count=48
is_linear=0
shrinkage=0.05


Tree=99
num_leaves=2
num_cat=0
split_feature=4
split_gain=0.228853
threshold=0.0097668375095472468
decision_type=2
left_child=-1
right_child=-2
leaf_value=0.0074912198099355252 -0.0049422197677262388
leaf_weight=5.3349141925573349 7.9032197594642639
leaf_count=18 30
internal_value=0.000242628
internal_weight=13.2381
internal_count=48
is_linear=0
shrinkage=0.05


Tree=100
num_leaves=2
num_cat=0
split_feature=4
split_gain=0.213293
threshold=0.010020014880123372
decision_type=2
left_child=-1
right_child=-2
leaf_value=-0.0061751036263410844 0.0056982051313470665
leaf_weight=6.0189061164855957 7.2048119753599167
leaf_count=21 27
internal_value=0.000239757
internal_weight=13.2237
internal_count=48
is_linear=0
shrinkage=0.05


Tree=101
num_leaves=2
num_cat=0
split_feature=4
split_gain=0.226369
threshold=0.0097668375095472468
decision_type=2
left_child=-1
right_child=-2
leaf_value=0.007437599034390778 -0.0049283178590933917
leaf_weight=5.3333898186683655 7.9055061340332031
leaf_count=18 30
internal_value=0.000225864
internal_weight=13.2389
internal_count=48
is_linear=0
shrinkage=0.05


Tree=102
num_leaves=2
num_cat=0
split_feature=4
split_gain=0.211824
threshold=0.010020014880123372
decision_type=2
left_child=-1
right_child=-2
leaf_value=-0.0061683037401753498 0.0056637209882300253
leaf_weight=6.0187385976314545 7.2057957202196121
leaf_count=21 27
internal_value=0.000223672
internal_weight=13.2245
internal_count=48
is_linear=0
shrinkage=0.05


Tree=103
num_leaves=2
num_cat=0
split_feature=0
split_gain=0.196331
threshold=58.821882995633864
decision_type=2
left_child=-1
right_child=-2
leaf_value=-0.0057427541227028827 0.0056197676868246739
leaf_weight=6.2735386043787003 6.9661066681146622
leaf_count=24 24
internal_value=0.000210506
internal_weight=13.2396
internal_count=48
is_linear=0
shrinkage=0.05


Tree=104
num_leaves=2
num_cat=0
split_feature=4
split_gain=0.228016
threshold=0.01028459611725588
decision_type=2
left_child=-1
right_child=-2
leaf_value=0.0059353779799208584 -0.0063249241238659123
leaf_weight=7.0882800817489624 6.1408783048391342
leaf_count=24 24
internal_value=0.000199695
internal_weight=13.2292
internal_count=48
is_linear=0
shrinkage=0.05


Tree=105
num_leaves=2
num_cat=0
split_feature=4
split_gain=0.211519
threshold=0.0097668375095472468
decision_type=2
left_child=-1
right_child=-2
leaf_value=0.0071687468603468286 -0.0047957833340038711
leaf_weight=5.3209675699472427 7.8898216784000397
leaf_count=18 30
internal_value=0.000188572
internal_weight=13.2108
internal_count=48
is_linear=0
shrinkage=0.05


Tree=106
num_leaves=2
num_cat=0
split_feature=4
split_gain=0.225288
threshold=0.010020014880123372
decision_type=2
left_child=-1
right_child=-2
leaf_value=-0.0064071640952235928 0.0058060292005821844
leaf_weight=6.0061732828617096 7.1906202286481857
leaf_count=21 27
internal_value=0.000187738
internal_weight=13.1968
internal_count=48
is_linear=0
shrinkage=0.05


Tree=107
num_leaves=2
num_cat=0
split_feature=4
split_gain=0.211033
threshold=0.01028459611725588
decision_type=2
left_child=-1
right_child=-2
leaf_value=0.0056979915787339179 -0.0061033110063962795
leaf_weight=7.0795007795095444 6.1329691112041473
leaf_count=24 24
internal_value=0.000176057
internal_weight=13.2125
internal_count=48
is_linear=0
shrinkage=0.05


Tree=108
num_leaves=2
num_cat=0
split_feature=4
split_gain=0.221859
threshold=0.010020014880123372
decision_type=2
left_child=-1
right_child=-2
leaf_value=-0.0063759255708261374 0.0057445085480534036
leaf_weight=6.007095068693161 7.1875372529029846
leaf_count=21 27
internal_value=0.000166025
internal_weight=13.1946
internal_count=48
is_linear=0
shrinkage=0.05


Tree=109
num_leaves=2
num_cat=0
split_feature=2
split_gain=0.192639
threshold=28.709098242363986
decision_type=2
left_child=-1
right_child=-2
leaf_value=0.0063188609590379826 -0.004983757434793885
leaf_weight=5.9020523279905319 7.3081036806106567
leaf_count=21 27
internal_value=0.000155349
internal_weight=13.2102
internal_count=48
is_linear=0
shrinkage=0.05


Tree=110
num_leaves=2
num_cat=0
split_feature=4
split_gain=0.212189
threshold=0.0097668375095472468
decision_type=2
left_child=-1
right_child=-2
leaf_value=0.0071463353949193197 -0.0048373913083197325
leaf_weight=5.3203248977661133 7.889755979180336
leaf_count=18 30
internal_value=0.000152282
internal_weight=13.2101
internal_count=48
is_linear=0
shrinkage=0.05


Tree=111
num_leaves=2
num_cat=0
split_feature=4
split_gain=0.219945
threshold=0.010020014880123372
decision_type=2
left_child=-1
right_child=-2
leaf_value=-0.0063605418450715795 0.0057070269595582293
leaf_weight=6.0065789967775345 7.1894901543855667
leaf_count=21 27
internal_value=0.000153
internal_weight=13.1961
internal_count=48
is_linear=0
shrinkage=0.05


Tree=112
num_leaves=2
num_cat=0
split_feature=4
split_gain=0.210716
threshold=0.0097668375095472468
decision_type=2
left_child=-1
right_child=-2
leaf_value=0.0071143019332245219 -0.004827557942927301
leaf_weight=5.3194034844636917 7.8921009451150894
leaf_count=18 30
internal_value=0.000142913
internal_weight=13.2115
internal_count=48
is_linear=0
shrinkage=0.05


Tree=113
num_leaves=2
num_cat=0
split_feature=4
split_gain=0.217543
threshold=0.010020014880123372
decision_type=2
left_child=-1
right_child=-2
leaf_value=-0.0063332925288666006 0.0056676457947858151
leaf_weight=6.0069178640842438 7.1906093657016754
leaf_count=21 27
internal_value=0.000144012
internal_weight=13.1975
internal_count=48
is_linear=0
shrinkage=0.05


Tree=114
num_leaves=2
num_cat=0
split_feature=4
split_gain=0.212501
threshold=0.01028459611725588
decision_type=2
left_child=-1
right_child=-2
leaf_value=0.0056792598344624426 -0.0061625723188987874
leaf_weight=7.0781148076057434 6.1347401142120361
leaf_count=24 24
internal_value=0.00013434
internal_weight=13.2129
internal_count=48
is_linear=0
shrinkage=0.05


Tree=115
num_leaves=2
num_cat=0
split_feature=3
split_gain=0.188523
threshold=1.0053494836418713
decision_type=2
left_child=-1
right_child=-2
leaf_value=-0.006376112904478118 0.0048943106852867334
leaf_weight=5.439807340502739 7.7551600784063339
leaf_count=21 27
internal_value=0.000126068
internal_weight=13.195
internal_count=48
is_linear=0
shrinkage=0.05


Tree=116
num_leaves=2
num_cat=0
split_feature=4
split_gain=0.211907
threshold=0.010020014880123372
decision_type=2
left_child=-1
right_child=-2
leaf_value=-0.0062775542278976013 0.0055711924389704546
leaf_weight=6.0030829161405563 7.1827925890684128
leaf_count=21 27
internal_value=0.000114598
internal_weight=13.1859
internal_count=48
is_linear=0
shrinkage=0.05


Tree=117
num_leaves=2
num_cat=0
split_feature=4
split_gain=0.214865
threshold=0.0097668375095472468
decision_type=2
left_child=-1
right_child=-2
leaf_value=0.007150533905370092 -0.0049123475895116505
leaf_weight=5.3153662085533142 7.885544165968895
leaf_count=18 30
internal_value=0.000106286
internal_weight=13.2009
internal_count=48
is_linear=0
shrinkage=0.05


Tree=118
num_leaves=2
num_cat=0
split_feature=4
split_gain=0.21006
threshold=0.010020014880123372
decision_type=2
left_child=-1
right_child=-2
leaf_value=-0.0062549059261590035 0.0055417106107908363
leaf_weight=6.0032487213611603 7.1836228966712952
leaf_count=21 27
internal_value=0.000109017
internal_weight=13.1869
internal_count=48
is_linear=0
shrinkage=0.05


Tree=119
num_leaves=2
num_cat=0
split_feature=4
split_gain=0.213838
threshold=0.01028459611725588
decision_type=2
left_child=-1
right_child=-2
leaf_value=0.0056688239376036249 -0.0062142542199186924
leaf_weight=7.0704601109027863 6.1313626319169998
leaf_count=24 24
internal_value=0.000100967
internal_weight=13.2018
internal_count=48
is_linear=0
shrinkage=0.05


Tree=120
num_leaves=2
num_cat=0
split_feature=4
split_gain=0.207519
threshold=0.010020014880123372
decision_type=2
left_child=-1
right_child=-2
leaf_value=-0.006229113559100068 0.0054968016287727786
leaf_weight=6.0040034502744675 7.1799300760030746
leaf_count=21 27
internal_value=9.41008e-05
internal_weight=13.1839
internal_count=48
is_linear=0
shrinkage=0.05


Tree=121
num_leaves=2
num_cat=0
split_feature=4
split_gain=0.215145
threshold=0.0097668375095472468
decision_type=2
left_child=-1
right_child=-2
leaf_value=0.0071368676640535438 -0.0049345411226246862
leaf_weight=5.3149742782115936 7.8837962448596954
leaf_count=18 30
internal_value=8.67454e-05
internal_weight=13.1988
internal_count=48
is_linear=0
shrinkage=0.05


Tree=122
num_leaves=2
num_cat=0
split_feature=4
split_gain=0.205891
threshold=0.010020014880123372
decision_type=2
left_child=-1
right_child=-2
leaf_value=-0.006207886442709005 0.0054716523072290265
leaf_weight=6.0040886551141739 7.1806358695030212
leaf_count=21 27
internal_value=9.0309e-05
internal_weight=13.1847
internal_count=48
is_linear=0
shrinkage=0.05


Tree=123
num_leaves=2
num_cat=0
split_feature=4
split_gain=0.212977
threshold=0.0097668375095472468
decision_type=2
left_child=-1
right_child=-2
leaf_value=0.0070989987736979482 -0.0049115238932037715
leaf_weight=5.3138871490955353 7.8855998963117599
leaf_count=18 30
internal_value=8.31326e-05
internal_weight=13.1995
internal_count=48
is_linear=0
shrinkage=0.05


Tree=124
num_leaves=2
num_cat=0
split_feature=4
split_gain=0.204255
threshold=0.010020014880123372
decision_type=2
left_child=-1
right_child=-2
leaf_value=-0.0061861721673385269 0.0054466015238604192
leaf_weight=6.0041527301073074 7.1813381910324097
leaf_count=21 27
internal_value=8.68207e-05
internal_weight=13.1855
internal_count=48
is_linear=0
shrinkage=0.05


Tree=125
num_leaves=2
num_cat=0
split_feature=4
split_gain=0.213553
threshold=0.01028459611725588
decision_type=2
left_child=-1
right_child=-2
leaf_value=0.0056465732075688738 -0.006229044471462053
leaf_weight=7.0682897716760635 6.1318888366222382
leaf_count=24 24
internal_value=7.98114e-05
internal_weight=13.2002
internal_count=48
is_linear=0
shrinkage=0.05


Tree=126
num_leaves=2
num_cat=0
split_feature=4
split_gain=0.201998
threshold=0.010020014880123372
decision_type=2
left_child=-1
right_child=-2
leaf_value=-0.0061624330871527817 0.005406843470985391
leaf_weight=6.0048455893993378 7.1774535626173019
leaf_count=21 27
internal_value=7.38469e-05
internal_weight=13.1823
internal_count=48
is_linear=0
shrinkage=0.05


Tree=127
num_leaves=2
num_cat=0
split_feature=4
split_gain=0.212885
threshold=0.0097668375095472468
decision_type=2
left_child=-1
right_child=-2
leaf_value=0.0070828165362381819 -0.0049259335454431589
leaf_weight=5.3134222030639648 7.88346266746521
leaf_count=18 30
internal_value=6.74419e-05
internal_weight=13.1969
internal_count=48
is_linear=0
shrinkage=0.05


Tree=128
num_leaves=2
num_cat=0
split_feature=2
split_gain=0.17809
threshold=28.709098242363986
decision_type=2
left_child=-1
right_child=-2
leaf_value=0.006004035947491361 -0.0048722384869470704
leaf_weight=5.8950888514518738 7.2878009229898453
leaf_count=21 27
internal_value=7.1792e-05
internal_weight=13.1829
internal_count=48
is_linear=0
shrinkage=0.05


Tree=129
num_leaves=2
num_cat=0
split_feature=4
split_gain=0.201008
threshold=0.010020014880123372
decision_type=2
left_child=-1
right_child=-2
leaf_value=-0.0061494481863564217 0.0053914193236575328
leaf_weight=6.0039936900138855 7.1786648482084274
leaf_count=21 27
internal_value=7.21949e-05
internal_weight=13.1827
internal_count=48
is_linear=0
shrinkage=0.05


Tree=130
num_leaves=2
num_cat=0
split_feature=4
split_gain=0.211646
threshold=0.01028459611725588
decision_type=2
left_child=-1
right_child=-2
leaf_value=0.0056094875363636209 -0.0062140887905798945
leaf_weight=7.0662432014942169 6.1309520304203033
leaf_count=24 24
internal_value=6.58666e-05
internal_weight=13.1972
internal_count=48
is_linear=0
shrinkage=0.05


Tree=131
num_leaves=2
num_cat=0
split_feature=4
split_gain=0.198846
threshold=0.010020014880123372
decision_type=2
left_child=-1
right_child=-2
leaf_value=-0.0061256979079305661 0.0053539015752310515
leaf_weight=6.0046858638525009 7.1746894866228104
leaf_count=21 27
internal_value=6.05029e-05
internal_weight=13.1794
internal_count=48
is_linear=0
shrinkage=0.05


Tree=132
num_leaves=2
num_cat=0
split_feature=4
split_gain=0.211645
threshold=0.0097668375095472468
decision_type=2
left_child=-1
right_child=-2
leaf_value=0.00705087960401921 -0.004923971957636733
leaf_weight=5.3124501556158066 7.8813638687133789
leaf_count=18 30
internal_value=5.47238e-05
internal_weight=13.1938
internal_count=48
is_linear=0
shrinkage=0.05


Tree=133
num_leaves=2
num_cat=0
split_feature=0
split_gain=0.178946
threshold=58.821882995633864
decision_type=2
left_child=-1
right_child=-2
leaf_value=-0.0056268063976226915 0.0052419969062765187
leaf_weight=6.2434554100036621 6.9363915622234344
leaf_count=24 24
internal_value=5.95929e-05
internal_weight=13.1798
internal_count=48
is_linear=0
shrinkage=0.05


Tree=134
num_leaves=2
num_cat=0
split_feature=4
split_gain=0.196356
threshold=0.010020014880123372
decision_type=2
left_child=-1
right_child=-2
leaf_value=-0.0060938970857751275 0.0053172375951430805
leaf_weight=5.9999839216470718 7.169775977730751
leaf_count=21 27
internal_value=5.52909e-05
internal_weight=13.1698
internal_count=48
is_linear=0
shrinkage=0.05


Tree=135
num_leaves=2
num_cat=0
split_feature=4
split_gain=0.211172
threshold=0.0097668375095472468
decision_type=2
left_child=-1
right_child=-2
leaf_value=0.0070414222048230364 -0.0049240936484507359
leaf_weight=5.3075783252716064 7.8764718174934387
leaf_count=18 30
internal_value=4.97561e-05
internal_weight=13.1841
internal_count=48
is_linear=0
shrinkage=0.05


Tree=136
num_leaves=2
num_cat=0
split_feature=4
split_gain=0.196922
threshold=0.01028459611725588
decision_type=2
left_child=-1
right_child=-2
leaf_value=0.0054077174905605022 -0.0060072936611283607
leaf_weight=7.0515458285808563 6.1185790598392487
leaf_count=24 24
internal_value=5.484e-05
internal_weight=13.1701
internal_count=48
is_linear=0
shrinkage=0.05


Tree=137
num_leaves=2
num_cat=0
split_feature=4
split_gain=0.210066
threshold=0.010020014880123372
decision_type=2
left_child=-1
right_child=-2
leaf_value=-0.0063126491254165695 0.0054966348931502059
leaf_weight=5.9929342865943909 7.1598957479000092
leaf_count=21 27
internal_value=5.00273e-05
internal_weight=13.1528
internal_count=48
is_linear=0
shrinkage=0.05


Tree=138
num_leaves=2
num_cat=0
split_feature=4
split_gain=0.196379
threshold=0.0097668375095472468
decision_type=2
left_child=-1
right_child=-2
leaf_value=0.006791199772727876 -0.0047539091940996996
leaf_weight=5.3003516793251038 7.8673916757106781
leaf_count=18 30
internal_value=4.46205e-05
internal_weight=13.1677
internal_count=48
is_linear=0
shrinkage=0.05


Tree=139
num_leaves=2
num_cat=0
split_feature=4
split_gain=0.207568
threshold=0.010020014880123372
decision_type=2
left_child=-1
right_child=-2
leaf_value=-0.0062749519295285218 0.0054634265166406569
leaf_weight=5.9933482855558395 7.1608237624168396
leaf_count=21 27
internal_value=4.9677e-05
internal_weight=13.1542
internal_count=48
is_linear=0
shrinkage=0.05


Tree=140
num_leaves=2
num_cat=0
split_feature=4
split_gain=0.19685
threshold=0.01028459611725588
decision_type=2
left_child=-1
right_child=-2
leaf_value=0.0053976954814051112 -0.0060155889804464745
leaf_weight=7.0500964671373367 6.1188754737377167
leaf_count=24 24
internal_value=4.43039e-05
internal_weight=13.169
internal_count=48
is_linear=0
shrinkage=0.05


Tree=141
num_leaves=2
num_cat=0
split_feature=3
split_gain=0.167366
threshold=1.0053494836418713
decision_type=2
left_child=-1
right_child=-2
leaf_value=-0.0060922581359602783 0.0045425431454507647
leaf_weight=5.4187317043542862 7.7329484969377518
leaf_count=21 27
internal_value=3.99405e-05
internal_weight=13.1517
internal_count=48
is_linear=0
shrinkage=0.05


Tree=142
num_leaves=2
num_cat=0
split_feature=4
split_gain=0.202072
threshold=0.010020014880123372
decision_type=2
left_child=-1
right_child=-2
leaf_value=-0.0062074917058463647 0.0053784670624685829
leaf_weight=5.9900853633880615 7.15289106965065
leaf_count=21 27
internal_value=3.24655e-05
internal_weight=13.143
internal_count=48
is_linear=0
shrinkage=0.05


Tree=143
num_leaves=2
num_cat=0
split_feature=4
split_gain=0.200539
threshold=0.0097668375095472468
decision_type=2
left_child=-1
right_child=-2
leaf_value=0.006848051185102926 -0.0048223690425246053
leaf_weight=5.2971257716417313 7.8603661507368088
leaf_count=18 30
internal_value=2.79064e-05
internal_weight=13.1575
internal_count=48
is_linear=0
shrinkage=0.05


Tree=144
num_leaves=2
num_cat=0
split_feature=2
split_gain=0.169793
threshold=28.709098242363986
decision_type=2
left_child=-1
right_child=-2
leaf_value=0.0058315704802838651 -0.0048012151930237066
leaf_weight=5.8830704391002655 7.2607793360948563
leaf_count=21 27
internal_value=3.37483e-05
internal_weight=13.1438
internal_count=48
is_linear=0
shrinkage=0.05


Tree=145
num_leaves=2
num_cat=0
split_feature=4
split_gain=0.200577
threshold=0.010020014880123372
decision_type=2
left_child=-1
right_child=-2
leaf_value=-0.0061819898361825595 0.0053609310977615057
leaf_weight=5.9894269406795502 7.154104009270668
leaf_count=21 27
internal_value=3.5707e-05
internal_weight=13.1435
internal_count=48
is_linear=0
shrinkage=0.05


Tree=146
num_leaves=2
num_cat=0
split_feature=4
split_gain=0.198514
threshold=0.01028459611725588
decision_type=2
left_child=-1
right_child=-2
leaf_value=0.0054106111687613912 -0.0060548513111752323
leaf_weight=7.0431416928768158 6.1148325651884079
leaf_count=24 24
internal_value=3.10114e-05
internal_weight=13.158
internal_count=48
is_linear=0
shrinkage=0.05


Tree=147
num_leaves=2
num_cat=0
split_feature=4
split_gain=0.197968
threshold=0.010020014880123372
decision_type=2
left_child=-1
right_child=-2
leaf_value=-0.0061480697787902588 0.0053203476634789536
leaf_weight=5.9904109388589859 7.1502526998519897
leaf_count=21 27
internal_value=2.72012e-05
internal_weight=13.1407
internal_count=48
is_linear=0
shrinkage=0.05


Tree=148
num_leaves=2
num_cat=0
split_feature=4
split_gain=0.200226
threshold=0.0097668375095472468
decision_type=2
left_child=-1
right_child=-2
leaf_value=0.0068380103131210337 -0.004824084145929438
leaf_weight=5.2967496514320374 7.8582396954298019
leaf_count=18 30
internal_value=2.29139e-05
internal_weight=13.155
internal_count=48
is_linear=0
shrinkage=0.05


Tree=149
num_leaves=2
num_cat=0
split_feature=4
split_gain=0.196213
threshold=0.010020014880123372
decision_type=2
left_child=-1
right_child=-2
leaf_value=-0.0061190557667606645 0.0052981790993351088
leaf_weight=5.9904886484146118 7.1508650928735733
leaf_count=21 27
internal_value=2.89614e-05
internal_weight=13.1414
internal_count=48
is_linear=0
shrinkage=0.05


Tree=150
num_leaves=2
num_cat=0
split_feature=4
split_gain=0.198364
threshold=0.0097668375095472468
decision_type=2
left_child=-1
right_child=-2
leaf_value=0.0068086924641926304 -0.0047990928575586001
leaf_weight=5.2959015369415283 7.8596966564655304
leaf_count=18 30
internal_value=2.46087e-05
internal_weight=13.1556
internal_count=48
is_linear=0
shrinkage=0.05


Tree=151
num_leaves=2
num_cat=0
split_feature=0
split_gain=0.158475
threshold=58.821882995633864
decision_type=2
left_child=-1
right_child=-2
leaf_value=-0.0053276531420109966 0.0049135217702765332
leaf_weight=6.222653865814209 6.9193539023399353
leaf_count=24 24
internal_value=3.0556e-05
internal_weight=13.142
internal_count=48
is_linear=0
shrinkage=0.05


Tree=152
num_leaves=2
num_cat=0
split_feature=2
split_gain=0.158919
threshold=28.709098242363986
decision_type=2
left_child=-1
right_child=-2
leaf_value=0.0056371566180680056 -0.0046530942764558963
leaf_weight=5.8805013000965118 7.2518696188926697
leaf_count=21 27
internal_value=2.75775e-05
internal_weight=13.1324
internal_count=48
is_linear=0
shrinkage=0.05


Tree=153
num_leaves=2
num_cat=0
split_feature=4
split_gain=0.193806
threshold=0.010020014880123372
decision_type=2
left_child=-1
right_child=-2
leaf_value=-0.0060831865971964025 0.0052674275154583616
leaf_weight=5.9852597564458847 7.1466978639364243
leaf_count=21 27
internal_value=2.96846e-05
internal_weight=13.132
internal_count=48
is_linear=0
shrinkage=0.05


Tree=154
num_leaves=2
num_cat=0
split_feature=0
split_gain=0.147574
threshold=58.821882995633864
decision_type=2
left_child=-1
right_child=-2
leaf_value=-0.0051450901061876114 0.0047363245141768201
leaf_weight=6.2235182374715805 6.9225376397371292
leaf_count=24 24
internal_value=2.53114e-05
internal_weight=13.1461
internal_count=48
is_linear=0
shrinkage=0.05


Tree=155
num_leaves=2
num_cat=0
split_feature=4
split_gain=0.200398
threshold=0.01028459611725588
decision_type=2
left_child=-1
right_child=-2
leaf_value=0.0054331042120267679 -0.0060945933368824678
leaf_weight=7.0303329676389694 6.1062972396612167
leaf_count=24 24
internal_value=2.26111e-05
internal_weight=13.1366
internal_count=48
is_linear=0
shrinkage=0.05


Tree=156
num_leaves=2
num_cat=0
split_feature=4
split_gain=0.190575
threshold=0.010020014880123372
decision_type=2
left_child=-1
right_child=-2
leaf_value=-0.0060424895492158133 0.0052175265614107626
leaf_weight=5.9817965924739838 7.1375275403261185
leaf_count=21 27
internal_value=1.91463e-05
internal_weight=13.1193
internal_count=48
is_linear=0
shrinkage=0.05


Tree=157
num_leaves=2
num_cat=0
split_feature=2
split_gain=0.149839
threshold=28.709098242363986
decision_type=2
left_child=-1
right_child=-2
leaf_value=0.0054609889510126991 -0.0045303645869668998
leaf_weight=5.8834515810012817 7.249793529510498
leaf_count=21 27
internal_value=1.52747e-05
internal_weight=13.1332
internal_count=48
is_linear=0
shrinkage=0.05


Tree=158
num_leaves=2
num_cat=0
split_feature=4
split_gain=0.200284
threshold=0.0097668375095472468
decision_type=2
left_child=-1
right_child=-2
leaf_value=0.0068389877655314546 -0.004833281314815193
leaf_weight=5.2877702862024307 7.8449877202510834
leaf_count=18 30
internal_value=1.78076e-05
internal_weight=13.1328
internal_count=48
is_linear=0
shrinkage=0.05


Tree=159
num_leaves=2
num_cat=0
split_feature=4
split_gain=0.189562
threshold=0.010020014880123372
decision_type=2
left_child=-1
right_child=-2
leaf_value=-0.0060225308515619233 0.0052076853442472627
leaf_weight=5.9807959049940109 7.1383824944496155
leaf_count=21 27
internal_value=2.40861e-05
internal_weight=13.1192
internal_count=48
is_linear=0
shrinkage=0.05


Tree=160
num_leaves=2
num_cat=0
split_feature=3
split_gain=0.13944
threshold=1.0053494836418713
decision_type=2
left_child=-1
right_child=-2
leaf_value=-0.0055846439228981332 0.0041297584232007963
leaf_weight=5.4042218178510666 7.7288264185190201
leaf_count=21 27
internal_value=1.99989e-05
internal_weight=13.133
internal_count=48
is_linear=0
shrinkage=0.05


Tree=161
num_leaves=2
num_cat=0
split_feature=4
split_gain=0.200953
threshold=0.01028459611725588
decision_type=2
left_child=-1
right_child=-2
leaf_value=0.0054352318943565979 -0.0061128256223356037
leaf_weight=7.0230819582939148 6.1017587631940842
leaf_count=24 24
internal_value=1.38407e-05
internal_weight=13.1248
internal_count=48
is_linear=0
shrinkage=0.05


Tree=162
num_leaves=2
num_cat=0
split_feature=4
split_gain=0.188044
threshold=0.0097668375095472468
decision_type=2
left_child=-1
right_child=-2
leaf_value=0.0066263332186091636 -0.0046931235229212831
leaf_weight=5.2770852148532867 7.8304662257432938
leaf_count=18 30
internal_value=1.07453e-05
internal_weight=13.1076
internal_count=48
is_linear=0
shrinkage=0.05


Tree=163
num_leaves=2
num_cat=0
split_feature=2
split_gain=0.138961
threshold=28.709098242363986
decision_type=2
left_child=-1
right_child=-2
leaf_value=0.0052672225266052197 -0.0043668930160047272
leaf_weight=5.8669056296348572 7.2274005115032196
leaf_count=21 27
internal_value=1.71234e-05
internal_weight=13.0943
internal_count=48
is_linear=0
shrinkage=0.05


Tree=164
num_leaves=2
num_cat=0
split_feature=4
split_gain=0.200701
threshold=0.010020014880123372
decision_type=2
left_child=-1
right_child=-2
leaf_value=-0.0062072033605380071 0.0053580039302800319
leaf_weight=5.9690051525831223 7.1247323155403137
leaf_count=21 27
internal_value=1.94636e-05
internal_weight=13.0937
internal_count=48
is_linear=0
shrinkage=0.05


Tree=165
num_leaves=2
num_cat=0
split_feature=4
split_gain=0.186171
threshold=0.0097668375095472468
decision_type=2
left_child=-1
right_child=-2
leaf_value=0.0065987120851151776 -0.0046643527287358183
leaf_weight=5.2760804295539856 7.8319975882768631
leaf_count=18 30
internal_value=1.54873e-05
internal_weight=13.1081
internal_count=48
is_linear=0
shrinkage=0.05


Tree=166
num_leaves=2
num_cat=0
split_feature=4
split_gain=0.198255
threshold=0.010020014880123372
decision_type=2
left_child=-1
right_child=-2
leaf_value=-0.0061670848988818298 0.0053270330100137642
leaf_weight=5.9693013429641724 7.1255804002285004
leaf_count=21 27
internal_value=2.16364e-05
internal_weight=13.0949
internal_count=48
is_linear=0
shrinkage=0.05


Tree=167
num_leaves=2
num_cat=0
split_feature=4
split_gain=0.187998
threshold=0.01028459611725588
decision_type=2
left_child=-1
right_child=-2
leaf_value=0.0052635837595915724 -0.005911888365140552
leaf_weight=7.0150005370378494 6.0941101312637329
leaf_count=24 24
internal_value=1.75801e-05
internal_weight=13.1091
internal_count=48
is_linear=0
shrinkage=0.05


Tree=168
num_leaves=2
num_cat=0
split_feature=4
split_gain=0.195378
threshold=0.010020014880123372
decision_type=2
left_child=-1
right_child=-2
leaf_value=-0.0061273858178932002 0.0052837370937625638
leaf_weight=5.9704432040452957 7.1218205094337463
leaf_count=21 27
internal_value=1.44029e-05
internal_weight=13.0923
internal_count=48
is_linear=0
shrinkage=0.05


Tree=169
num_leaves=2
num_cat=0
split_feature=4
split_gain=0.187463
threshold=0.0097668375095472468
decision_type=2
left_child=-1
right_child=-2
leaf_value=0.0066163389624643914 -0.00468608649434711
leaf_weight=5.2765914499759674 7.829772412776947
leaf_count=18 30
internal_value=1.07029e-05
internal_weight=13.1064
internal_count=48
is_linear=0
shrinkage=0.05


Tree=170
num_leaves=2
num_cat=0
split_feature=2
split_gain=0.139213
threshold=34.009262970497893
decision_type=2
left_child=-1
right_child=-2
leaf_value=-0.0043453885685662353 0.0053030935239875348
leaf_weight=7.2706967145204544 5.822435200214386
leaf_count=27 21
internal_value=1.70736e-05
internal_weight=13.0931
internal_count=48
is_linear=0
shrinkage=0.05


Tree=171
num_leaves=2
num_cat=0
split_feature=2
split_gain=0.13627
threshold=28.709098242363986
decision_type=2
left_child=-1
right_child=-2
leaf_value=0.00521704064836558 -0.0043235984743966623
leaf_weight=5.8685754686594009 7.2239656895399094
leaf_count=21 27
internal_value=1.96212e-05
internal_weight=13.0925
internal_count=48
is_linear=0
shrinkage=0.05


Tree=172
num_leaves=2
num_cat=0
split_feature=4
split_gain=0.194198
threshold=0.010020014880123372
decision_type=2
left_child=-1
right_child=-2
leaf_value=-0.0061013725883827035 0.0052752666106051409
leaf_weight=5.971009150147438 7.1209383606910706
leaf_count=21 27
internal_value=2.18132e-05
internal_weight=13.0919
internal_count=48
is_linear=0
shrinkage=0.05


Tree=173
num_leaves=2
num_cat=0
split_feature=2
split_gain=0.13727
threshold=34.009262970497893
decision_type=2
left_child=-1
right_child=-2
leaf_value=-0.0043114729671424002 0.0052655243043849276
leaf_weight=7.2792055010795593 5.8267876952886581
leaf_count=27 21
internal_value=1.77971e-05
internal_weight=13.106
internal_count=48
is_linear=0
shrinkage=0.05


Tree=174
num_leaves=2
num_cat=0
split_feature=4
split_gain=0.185639
threshold=0.0097668375095472468
decision_type=2
left_child=-1
right_child=-2
leaf_value=0.0065921489912748174 -0.0046551779351467195
leaf_weight=5.2774519473314285 7.8279460966587067
leaf_count=18 30
internal_value=2.02928e-05
internal_weight=13.1054
internal_count=48
is_linear=0
shrinkage=0.05


Tree=175
num_leaves=2
num_cat=0
split_feature=3
split_gain=0.13445
threshold=1.0053494836418713
decision_type=2
left_child=-1
right_child=-2
leaf_value=-0.0054871192678431421 0.0040653126245505438
leaf_weight=5.3842501640319824 7.7079589366912842
leaf_count=21 27
internal_value=2.62154e-05
internal_weight=13.0922
internal_count=48
is_linear=0
shrinkage=0.05


Tree=176
num_leaves=2
num_cat=0
split_feature=4
split_gain=0.190455
threshold=0.010020014880123372
decision_type=2
left_child=-1
right_child=-2
leaf_value=-0.0060446977061913189 0.0052245688416544178
leaf_weight=5.9683979153633118 7.115783765912056
leaf_count=21 27
internal_value=1.98529e-05
internal_weight=13.0842
internal_count=48
is_linear=0
shrinkage=0.05


Tree=177
num_leaves=2
num_cat=0
split_feature=4
split_gain=0.188664
threshold=0.01028459611725588
decision_type=2
left_child=-1
right_child=-2
leaf_value=0.0052737794433424939 -0.0059254910981814159
leaf_weight=7.0083946734666824 6.0896322131156921
leaf_count=24 24
internal_value=1.59565e-05
internal_weight=13.098
internal_count=48
is_linear=0
shrinkage=0.05


Tree=178
num_leaves=2
num_cat=0
split_feature=4
split_gain=0.188006
threshold=0.010020014880123372
decision_type=2
left_child=-1
right_child=-2
leaf_value=-0.0060108456379884372 0.0051865801001259272
leaf_weight=5.9693652987480164 7.1118298470973969
leaf_count=21 27
internal_value=1.28452e-05
internal_weight=13.0812
internal_count=48
is_linear=0
shrinkage=0.05


Tree=179
num_leaves=2
num_cat=0
split_feature=4
split_gain=0.188957
threshold=0.0097668375095472468
decision_type=2
left_child=-1
right_child=-2
leaf_value=0.0066414949021477033 -0.0047095036101999846
leaf_weight=5.2743876129388809 7.8205426782369614
leaf_count=18 30
internal_value=9.28956e-06
internal_weight=13.0949
internal_count=48
is_linear=0
shrinkage=0.05


Tree=180
num_leaves=2
num_cat=0
split_feature=4
split_gain=0.186289
threshold=0.010020014880123372
decision_type=2
left_child=-1
right_child=-2
leaf_value=-0.0059807252195941641 0.0051652989667615012
leaf_weight=5.9692771136760712 7.1124064773321152
leaf_count=21 27
internal_value=1.5742e-05
internal_weight=13.0817
internal_count=48
is_linear=0
shrinkage=0.05


Tree=181
num_leaves=2
num_cat=0
split_feature=4
split_gain=0.187693
threshold=0.01028459611725588
decision_type=2
left_child=-1
right_child=-2
leaf_value=0.0052576601927939856 -0.0059136822250305081
leaf_weight=7.0061243176460266 6.089214414358139
leaf_count=24 24
internal_value=1.20692e-05
internal_weight=13.0953
internal_count=48
is_linear=0
shrinkage=0.05


Tree=182
num_leaves=2
num_cat=0
split_feature=2
split_gain=0.136637
threshold=28.709098242363986
decision_type=2
left_child=-1
right_child=-2
leaf_value=0.005213585375081254 -0.0043438092200913407
leaf_weight=5.8666081577539444 7.211934357881546
leaf_count=21 27
internal_value=9.13246e-06
internal_weight=13.0785
internal_count=48
is_linear=0
shrinkage=0.05


Tree=183
num_leaves=2
num_cat=0
split_feature=2
split_gain=0.132663
threshold=34.009262970497893
decision_type=2
left_child=-1
right_child=-2
leaf_value=-0.0042470385839072878 0.0051768001766838807
leaf_weight=7.2651885151863098 5.812754362821579
leaf_count=27 21
internal_value=1.17697e-05
internal_weight=13.0779
internal_count=48
is_linear=0
shrinkage=0.05


Tree=184
num_leaves=2
num_cat=0
split_feature=4
split_gain=0.184926
threshold=0.010020014880123372
decision_type=2
left_child=-1
right_child=-2
leaf_value=-0.0059581274760182011 0.0051482618208734425
leaf_weight=5.9705935567617416 7.1067366749048233
leaf_count=21 27
internal_value=1.44856e-05
internal_weight=13.0773
internal_count=48
is_linear=0
shrinkage=0.05


Tree=185
num_leaves=2
num_cat=0
split_feature=2
split_gain=0.134442
threshold=28.709098242363986
decision_type=2
left_child=-1
right_child=-2
leaf_value=0.0051703265067014875 -0.0043059734095542909
leaf_weight=5.8734277635812759 7.2174967974424362
leaf_count=21 27
internal_value=1.08966e-05
internal_weight=13.0909
internal_count=48
is_linear=0
shrinkage=0.05


Tree=186
num_leaves=2
num_cat=0
split_feature=4
split_gain=0.187966
threshold=0.0097668375095472468
decision_type=2
left_child=-1
right_child=-2
leaf_value=0.0066271814622357889 -0.0046952213177407082
leaf_weight=5.2744162082672119 7.815894216299057
leaf_count=18 30
internal_value=1.3422e-05
internal_weight=13.0903
internal_count=48
is_linear=0
shrinkage=0.05


Tree=187
num_leaves=2
num_cat=0
split_feature=4
split_gain=0.183658
threshold=0.010020014880123372
decision_type=2
left_child=-1
right_child=-2
leaf_value=-0.005933589514695913 0.0051348566550929861
leaf_weight=5.9695199131965637 7.1075675487518311
leaf_count=21 27
internal_value=1.96722e-05
internal_weight=13.0771
internal_count=48
is_linear=0
shrinkage=0.05


Tree=188
num_leaves=2
num_cat=0
split_feature=2
split_gain=0.131646
threshold=34.009262970497893
decision_type=2
left_child=-1
right_child=-2
leaf_value=-0.0042240475264409497 0.0051598791490862911
leaf_weight=7.273969978094101 5.8166483342647552
leaf_count=27 21
internal_value=1.58573e-05
internal_weight=13.0906
internal_count=48
is_linear=0
shrinkage=0.05


Tree=189
num_leaves=2
num_cat=0
split_feature=4
split_gain=0.186314
threshold=0.0097668375095472468
decision_type=2
left_child=-1
right_child=-2
leaf_value=0.0066025212213004269 -0.0046700600748730064
leaf_weight=5.2745474725961685 7.8154612630605698
leaf_count=18 30
internal_value=1.83889e-05
internal_weight=13.09
internal_count=48
is_linear=0
shrinkage=0.05


Tree=190
num_leaves=2
num_cat=0
split_feature=4
split_gain=0.182595
threshold=0.010020014880123372
decision_type=2
left_child=-1
right_child=-2
leaf_value=-0.0059110274115701964 0.0051253256751150967
leaf_weight=5.9706166833639145 7.1062082350254059
leaf_count=21 27
internal_value=2.43983e-05
internal_weight=13.0768
internal_count=48
is_linear=0
shrinkage=0.05


Tree=191
num_leaves=2
num_cat=0
split_feature=4
split_gain=0.185294
threshold=0.01028459611725588
decision_type=2
left_child=-1
right_child=-2
leaf_value=0.0052325169820241699 -0.0058690727396821614
leaf_weight=7.0036657899618149 6.0866434276103973
leaf_count=24 24
internal_value=2.03893e-05
internal_weight=13.0903
internal_count=48
is_linear=0
shrinkage=0.05


Tree=192
num_leaves=2
num_cat=0
split_feature=4
split_gain=0.180425
threshold=0.010020014880123372
decision_type=2
left_child=-1
right_child=-2
leaf_value=-0.0058812520156429427 0.0050902374481609702
leaf_weight=5.971463531255722 7.1021369248628616
leaf_count=21 27
internal_value=1.71148e-05
internal_weight=13.0736
internal_count=48
is_linear=0
shrinkage=0.05


Tree=193
num_leaves=2
num_cat=0
split_feature=4
split_gain=0.1865
threshold=0.0097668375095472468
decision_type=2
left_child=-1
right_child=-2
leaf_value=0.0066007782573074859 -0.004678246904204192
leaf_weight=5.2744969576597214 7.8124894946813583
leaf_count=18 30
internal_value=1.34565e-05
internal_weight=13.087
internal_count=48
is_linear=0
shrinkage=0.05


Tree=194
num_leaves=2
num_cat=0
split_feature=4
split_gain=0.178973
threshold=0.010020014880123372
decision_type=2
left_child=-1
right_child=-2
leaf_value=-0.0058553531287798442 0.0050718704153412857
leaf_weight=5.9711622595787048 7.1026321798563004
leaf_count=21 27
internal_value=1.96737e-05
internal_weight=13.0738
internal_count=48
is_linear=0
shrinkage=0.05


Tree=195
num_leaves=2
num_cat=0
split_feature=4
split_gain=0.184607
threshold=0.0097668375095472468
decision_type=2
left_child=-1
right_child=-2
leaf_value=0.0065703725566905145 -0.0046514837209639375
leaf_weight=5.2736157774925232 7.8134960234165192
leaf_count=18 30
internal_value=1.59124e-05
internal_weight=13.0871
internal_count=48
is_linear=0
shrinkage=0.05


Tree=196
num_leaves=2
num_cat=0
split_feature=4
split_gain=0.177517
threshold=0.010020014880123372
decision_type=2
left_child=-1
right_child=-2
leaf_value=-0.0058295269927744432 0.005053129501034685
leaf_weight=5.9708306193351746 7.1031371206045151
leaf_count=21 27
internal_value=2.19949e-05
internal_weight=13.074
internal_count=48
is_linear=0
shrinkage=0.05


Tree=197
num_leaves=2
num_cat=0
split_feature=4
split_gain=0.18524
threshold=0.01028459611725588
decision_type=2
left_child=-1
right_child=-2
leaf_value=0.005231214690509846 -0.0058697591570520576
leaf_weight=7.0005483329296112 6.0866676867008209
leaf_count=24 24
internal_value=1.81408e-05
internal_weight=13.0872
internal_count=48
is_linear=0
shrinkage=0.05


Tree=198
num_leaves=2
num_cat=0
split_feature=4
split_gain=0.175601
threshold=0.010020014880123372
decision_type=2
left_child=-1
right_child=-2
leaf_value=-0.0058032823849242755 0.005021475869320776
leaf_weight=5.971574604511261 7.0989372432231903
leaf_count=21 27
internal_value=1.49676e-05
internal_weight=13.0705
internal_count=48
is_linear=0
shrinkage=0.05


Tree=199
num_leaves=2
num_cat=0
split_feature=4
split_gain=0.184474
threshold=0.0097668375095472468
decision_type=2
left_child=-1
right_child=-2
leaf_value=0.0065634874779069837 -0.0046552795122188793
leaf_weight=5.2734160423278809 7.8102569431066513
leaf_count=18 30
internal_value=1.14515e-05
internal_weight=13.0837
internal_count=48
is_linear=0
shrinkage=0.05


end of trees

feature_importances:
Column_4=129
Column_3=27
Column_2=26
Column_0=18

parameters:
[boosting: gbdt]
[objective: binary]
[metric: binary_logloss]
[tree_learner: serial]
[device_type: cpu]
[data_sample_strategy: bagging]
[data: ]
[valid: ]
[num_iterations: 200]
[learning_rate: 0.05]
[num_leaves: 31]
[num_threads: 8]
[seed: 42]
[deterministic: 0]
[force_col_wise: 0]
[force_row_wise: 0]
[histogram_pool_size: -1]
[max_depth: 5]
[min_data_in_leaf: 20]
[min_sum_hessian_in_leaf: 0.001]
[bagging_fraction: 0.8]
[pos_bagging_fraction: 1]
[neg_bagging_fraction: 1]
[bagging_freq: 0]
[bagging_seed: 400]
[bagging_by_query: 0]
[feature_fraction: 0.8]
[feature_fraction_bynode: 1]
[feature_fraction_seed: 30056]
[extra_trees: 0]
[extra_seed: 12879]
[early_stopping_round: 0]
[early_stopping_min_delta: 0]
[first_metric_only: 0]
[max_delta_step: 0]
[lambda_l1: 0]
[lambda_l2: 1]
[linear_lambda: 0]
[min_gain_to_split: 0]
[drop_rate: 0.1]
[max_drop: 50]
[skip_drop: 0.5]
[xgboost_dart_mode: 0]
[uniform_drop: 0]
[drop_seed: 17869]
[top_rate: 0.2]
[other_rate: 0.1]
[min_data_per_group: 100]
[max_cat_threshold: 32]
[cat_l2: 10]
[cat_smooth: 10]
[max_cat_to_onehot: 4]
[top_k: 20]
[monotone_constraints: ]
[monotone_constraints_method: basic]
[monotone_penalty: 0]
[feature_contri: ]
[forcedsplits_filename: ]
[refit_decay_rate: 0.9]
[cegb_tradeoff: 1]
[cegb_penalty_split: 0]
[cegb_penalty_feature_lazy: ]
[cegb_penalty_feature_coupled: ]
[path_smooth: 0]
[interaction_constraints: ]
[verbosity: -1]
[saved_feature_importance_type: 0]
[use_quantized_grad: 0]
[num_grad_quant_bins: 4]
[quant_train_renew_leaf: 0]
[stochastic_rounding: 1]
[linear_tree: 0]
[max_bin: 255]
[max_bin_by_feature: ]
[min_data_in_bin: 3]
[bin_construct_sample_cnt: 200000]
[data_random_seed: 175]
[is_enable_sparse: 1]
[enable_bundle: 1]
[use_missing: 1]
[zero_as_missing: 0]
[feature_pre_filter: 1]
[pre_partition: 0]
[two_round: 0]
[header: 0]
[label_column: ]
[weight_column: ]
[group_column: ]
[ignore_column: ]
[categorical_feature: ]
[forcedbins_filename: ]
[precise_float_parser: 0]
[parser_config_file: ]
[objective_seed: 16083]
[num_class: 1]
[is_unbalance: 0]
[scale_pos_weight: 1.52632]
[sigmoid: 1]
[boost_from_average: 1]
[reg_sqrt: 0]
[alpha: 0.9]
[fair_c: 1]
[poisson_max_delta_step: 0.7]
[tweedie_variance_power: 1.5]
[lambdarank_truncation_level: 30]
[lambdarank_norm: 1]
[label_gain: ]
[lambdarank_position_bias_regularization: 0]
[eval_at: ]
[multi_error_top_k: 1]
[auc_mu_weights: ]
[num_machines: 1]
[local_listen_port: 12400]
[time_out: 120]
[machine_list_filename: ]
[machines: ]
[gpu_platform_id: -1]
[gpu_device_id: -1]
[gpu_use_dp: 0]
[num_gpu: 1]

end of parameters

pandas_categorical:null
