'use strict';

function scoreShort(input) {
    var var0;
    if (input[4] > 0.01028459611725588) {
        var0 = -0.4334782632632228;
    } else {
        var0 = -0.3772868163592031;
    }
    var var1;
    if (input[4] > 0.01028459611725588) {
        var1 = -0.010181450636550777;
    } else {
        var1 = 0.04321050335630279;
    }
    var var2;
    if (input[0] > 58.821882995633864) {
        var2 = 0.03629182969854102;
    } else {
        var2 = -0.003328847642748395;
    }
    var var3;
    if (input[4] > 0.01028459611725588) {
        var3 = -0.010448178088816774;
    } else {
        var3 = 0.04012100904615003;
    }
    var var4;
    if (input[4] > 0.01028459611725588) {
        var4 = -0.010015305525188367;
    } else {
        var4 = 0.03814610982002271;
    }
    var var5;
    if (input[0] > 58.821882995633864) {
        var5 = 0.03286080002636387;
    } else {
        var5 = -0.0045107744173266354;
    }
    var var6;
    if (input[4] > 0.01028459611725588) {
        var6 = -0.010197785046395935;
    } else {
        var6 = 0.03555518008574558;
    }
    var var7;
    if (input[0] > 58.821882995633864) {
        var7 = 0.030580062175151024;
    } else {
        var7 = -0.004907799638650524;
    }
    var var8;
    if (input[4] > 0.01028459611725588) {
        var8 = -0.01032090531983856;
    } else {
        var8 = 0.03321152065212674;
    }
    var var9;
    if (input[4] > 0.01028459611725588) {
        var9 = -0.009893255504924266;
    } else {
        var9 = 0.03166889766018277;
    }
    var var10;
    if (input[3] > 1.0053494836418713) {
        var10 = 0.026424409709858855;
    } else {
        var10 = -0.0078079853155791;
    }
    var var11;
    if (input[4] > 0.01028459611725588) {
        var11 = -0.010040131067456104;
    } else {
        var11 = 0.029710038414488833;
    }
    var var12;
    if (input[4] > 0.01028459611725588) {
        var12 = -0.009623962877169503;
    } else {
        var12 = 0.028364650428880568;
    }
    var var13;
    if (input[4] > 0.01028459611725588) {
        var13 = -0.00922479068160956;
    } else {
        var13 = 0.027091429930838302;
    }
    var var14;
    if (input[4] > 0.01028459611725588) {
        var14 = -0.008841911350526454;
    } else {
        var14 = 0.025884832604880337;
    }
    var var15;
    if (input[4] > 0.01028459611725588) {
        var15 = -0.008474660145753068;
    } else {
        var15 = 0.024739937451761302;
    }
    var var16;
    if (input[0] > 58.821882995633864) {
        var16 = 0.024422607021605897;
    } else {
        var16 = -0.007839106038626606;
    }
    var var17;
    if (input[4] > 0.01028459611725588) {
        var17 = -0.008486149513970509;
    } else {
        var17 = 0.023245511099065523;
    }
    var var18;
    if (input[3] > 1.0053494836418713) {
        var18 = 0.02189895789843641;
    } else {
        var18 = -0.010202906376189397;
    }
    var var19;
    if (input[4] > 0.01028459611725588) {
        var19 = -0.00854357334627946;
    } else {
        var19 = 0.0219110112450827;
    }
    var var20;
    if (input[3] > 1.0053494836418713) {
        var20 = 0.020610019933758657;
    } else {
        var20 = -0.010182181256132992;
    }
    var var21;
    if (input[4] > 0.01028459611725588) {
        var21 = -0.008568617081694218;
    } else {
        var21 = 0.020674998090254353;
    }
    var var22;
    if (input[0] > 58.821882995633864) {
        var22 = 0.020496089524055704;
    } else {
        var22 = -0.008093616406728772;
    }
    var var23;
    if (input[3] > 1.0053494836418713) {
        var23 = 0.01866958181843739;
    } else {
        var23 = -0.009849785966268981;
    }
    var var24;
    if (input[4] > 0.01028459611725588) {
        var24 = -0.008834045600117215;
    } else {
        var24 = 0.01924356349362316;
    }
    var var25;
    if (input[3] > 1.0053494836418713) {
        var25 = 0.017615232462549073;
    } else {
        var25 = -0.00977715392574309;
    }
    var var26;
    if (input[4] > 0.01028459611725588) {
        var26 = -0.008782518285511123;
    } else {
        var26 = 0.01820242716684448;
    }
    var var27;
    if (input[3] > 1.0053494836418713) {
        var27 = 0.016635785123603027;
    } else {
        var27 = -0.009684376636206816;
    }
    var var28;
    if (input[4] > 0.01028459611725588) {
        var28 = -0.008711128918633324;
    } else {
        var28 = 0.017231763022800245;
    }
    var var29;
    if (input[3] > 1.0053494836418713) {
        var29 = 0.015724480974098464;
    } else {
        var29 = -0.009574180533148348;
    }
    var var30;
    if (input[4] > 0.01028459611725588) {
        var30 = -0.008622501138953019;
    } else {
        var30 = 0.0163254731192898;
    }
    var var31;
    if (input[4] > 0.01028459611725588) {
        var31 = -0.008264354455526497;
    } else {
        var31 = 0.015629399460940965;
    }
    var var32;
    if (input[3] > 1.0053494836418713) {
        var32 = 0.01473352003569569;
    } else {
        var32 = -0.00971163682026397;
    }
    var var33;
    if (input[3] > 1.0053494836418713) {
        var33 = 0.014080312413855964;
    } else {
        var33 = -0.009308037184188482;
    }
    var var34;
    if (input[4] > 0.01028459611725588) {
        var34 = -0.008405497541623902;
    } else {
        var34 = 0.014686993010607921;
    }
    var var35;
    if (input[3] > 1.0053494836418713) {
        var35 = 0.013340396745262537;
    } else {
        var35 = -0.009159277727457558;
    }
    var var36;
    if (input[4] > 0.01028459611725588) {
        var36 = -0.008278079886578927;
    } else {
        var36 = 0.013943611312540537;
    }
    var var37;
    if (input[3] > 1.0053494836418713) {
        var37 = 0.012648421067780809;
    } else {
        var37 = -0.009001363994557369;
    }
    var var38;
    if (input[4] > 0.01028459611725588) {
        var38 = -0.008141402739124316;
    } else {
        var38 = 0.013246214597196583;
    }
    var var39;
    if (input[0] > 58.821882995633864) {
        var39 = 0.012997765561939073;
    } else {
        var39 = -0.0076200960339630605;
    }
    var var40;
    if (input[4] > 0.009766837509547247) {
        var40 = -0.00571359090796816;
    } else {
        var40 = 0.01508768028580408;
    }
    var var41;
    if (input[3] > 1.0053494836418713) {
        var41 = 0.011497147967236507;
    } else {
        var41 = -0.008755004639995519;
    }
    var var42;
    if (input[3] > 1.0053494836418713) {
        var42 = 0.010991193777231177;
    } else {
        var42 = -0.00839137494169845;
    }
    var var43;
    if (input[4] > 0.01028459611725588) {
        var43 = -0.008066165959290644;
    } else {
        var43 = 0.011973588621769986;
    }
    var var44;
    if (input[4] > 0.009766837509547247) {
        var44 = -0.005689954112737866;
    } else {
        var44 = 0.013896904572601447;
    }
    var var45;
    if (input[3] > 1.0053494836418713) {
        var45 = 0.01040715744764689;
    } else {
        var45 = -0.008396602122837613;
    }
    var var46;
    if (input[4] > 0.009766837509547247) {
        var46 = -0.005609718281959325;
    } else {
        var46 = 0.013301877764049029;
    }
    var var47;
    if (input[4] > 0.01028459611725588) {
        var47 = -0.007422086155908925;
    } else {
        var47 = 0.010645867576313828;
    }
    var var48;
    if (input[3] > 1.0053494836418713) {
        var48 = 0.009871195248375;
    } else {
        var48 = -0.008370425504084135;
    }
    var var49;
    if (input[4] > 0.009766837509547247) {
        var49 = -0.005376498944096907;
    } else {
        var49 = 0.012310059812608326;
    }
    var var50;
    if (input[3] > 1.0053494836418713) {
        var50 = 0.009416734774530968;
    } else {
        var50 = -0.008172631032098573;
    }
    var var51;
    if (input[4] > 0.01028459611725588) {
        var51 = -0.007177732271173028;
    } else {
        var51 = 0.009760926537402475;
    }
    var var52;
    if (input[0] > 58.821882995633864) {
        var52 = 0.009867777345852412;
    } else {
        var52 = -0.0070745645469485465;
    }
    var var53;
    if (input[2] > 28.709098242363986) {
        var53 = -0.005996337445494888;
    } else {
        var53 = 0.011038692050516764;
    }
    var var54;
    if (input[0] > 58.821882995633864) {
        var54 = 0.009467104183435958;
    } else {
        var54 = -0.0069448459878555914;
    }
    var var55;
    if (input[4] > 0.009766837509547247) {
        var55 = -0.00540532434871293;
    } else {
        var55 = 0.011248675050875501;
    }
    var var56;
    if (input[3] > 1.0053494836418713) {
        var56 = 0.008312431400107278;
    } else {
        var56 = -0.0077371854233269245;
    }
    var var57;
    if (input[2] > 28.709098242363986) {
        var57 = -0.006087118745738855;
    } else {
        var57 = 0.010540065847001961;
    }
    var var58;
    if (input[2] > 28.709098242363986) {
        var58 = -0.00581826898300237;
    } else {
        var58 = 0.010084623921162808;
    }
    var var59;
    if (input[0] > 58.821882995633864) {
        var59 = 0.00877217799494091;
    } else {
        var59 = -0.006841800779143529;
    }
    var var60;
    if (input[4] > 0.009766837509547247) {
        var60 = -0.005451041105853032;
    } else {
        var60 = 0.010616495200724786;
    }
    var var61;
    if (input[4] > 0.01028459611725588) {
        var61 = -0.006945387734578319;
    } else {
        var61 = 0.008371204515339329;
    }
    var var62;
    if (input[2] > 28.709098242363986) {
        var62 = -0.005805714616209604;
    } else {
        var62 = 0.009592170707704375;
    }
    var var63;
    if (input[3] > 1.0053494836418713) {
        var63 = 0.007674977762857936;
    } else {
        var63 = -0.00778680163094694;
    }
    var var64;
    if (input[2] > 28.709098242363986) {
        var64 = -0.005673847482676249;
    } else {
        var64 = 0.009204899893768001;
    }
    var var65;
    if (input[0] > 58.821882995633864) {
        var65 = 0.008123501942010952;
    } else {
        var65 = -0.006759755779070649;
    }
    var var66;
    if (input[4] > 0.009766837509547247) {
        var66 = -0.005292834672741494;
    } else {
        var66 = 0.009724743365552502;
    }
    var var67;
    if (input[3] > 1.0053494836418713) {
        var67 = 0.0071037506827107124;
    } else {
        var67 = -0.007429303734274995;
    }
    var var68;
    if (input[2] > 28.709098242363986) {
        var68 = -0.005689765660964388;
    } else {
        var68 = 0.008848437702276623;
    }
    var var69;
    if (input[4] > 0.01028459611725588) {
        var69 = -0.006794900208031668;
    } else {
        var69 = 0.007582345806661281;
    }
    var var70;
    if (input[0] > 58.821882995633864) {
        var70 = 0.0075170443378683865;
    } else {
        var70 = -0.006513590612380569;
    }
    var var71;
    if (input[4] > 0.009766837509547247) {
        var71 = -0.005085768583646174;
    } else {
        var71 = 0.008989200214725424;
    }
    var var72;
    if (input[2] > 28.709098242363986) {
        var72 = -0.005619180530624147;
    } else {
        var72 = 0.008458791923127476;
    }
    var var73;
    if (input[3] > 1.0053494836418713) {
        var73 = 0.0066191191016519635;
    } else {
        var73 = -0.007272316106228131;
    }
    var var74;
    if (input[2] > 28.709098242363986) {
        var74 = -0.005471806975957484;
    } else {
        var74 = 0.008131167907169726;
    }
    var var75;
    if (input[4] > 0.01028459611725588) {
        var75 = -0.006480531341499134;
    } else {
        var75 = 0.006947511716267724;
    }
    var var76;
    if (input[3] > 1.0053494836418713) {
        var76 = 0.006365096532024885;
    } else {
        var76 = -0.007151073737264747;
    }
    var var77;
    if (input[2] > 28.709098242363986) {
        var77 = -0.005363237451562727;
    } else {
        var77 = 0.007797077395352937;
    }
    var var78;
    if (input[0] > 58.821882995633864) {
        var78 = 0.006823055407699051;
    } else {
        var78 = -0.00626215092888771;
    }
    var var79;
    if (input[4] > 0.009766837509547247) {
        var79 = -0.004959133394014274;
    } else {
        var79 = 0.008273000062472207;
    }
    var var80;
    if (input[2] > 28.709098242363986) {
        var80 = -0.005236012894804587;
    } else {
        var80 = 0.0074993715856873965;
    }
    var var81;
    if (input[0] > 58.821882995633864) {
        var81 = 0.006598499825384737;
    } else {
        var81 = -0.006147215850236458;
    }
    var var82;
    if (input[4] > 0.01028459611725588) {
        var82 = -0.006196663776835646;
    } else {
        var82 = 0.006379488668766892;
    }
    var var83;
    if (input[3] > 1.0053494836418713) {
        var83 = 0.005757316694265925;
    } else {
        var83 = -0.00671855739164389;
    }
    var var84;
    if (input[2] > 28.709098242363986) {
        var84 = -0.005216860162281001;
    } else {
        var84 = 0.007267265429649847;
    }
    var var85;
    if (input[0] > 58.821882995633864) {
        var85 = 0.006134076491028427;
    } else {
        var85 = -0.005825530611025112;
    }
    var var86;
    if (input[4] > 0.009766837509547247) {
        var86 = -0.004769233393871683;
    } else {
        var86 = 0.0076695114024662924;
    }
    var var87;
    if (input[2] > 28.709098242363986) {
        var87 = -0.00507829468610134;
    } else {
        var87 = 0.0069983989066142414;
    }
    var var88;
    if (input[4] > 0.010020014880123372) {
        var88 = 0.006014370274986528;
    } else {
        var88 = -0.006199881596241358;
    }
    var var89;
    if (input[4] > 0.009766837509547247) {
        var89 = -0.004775556910229079;
    } else {
        var89 = 0.0075787668804732505;
    }
    var var90;
    if (input[4] > 0.010020014880123372) {
        var90 = 0.005958797224223342;
    } else {
        var90 = -0.006198480500687325;
    }
    var var91;
    if (input[4] > 0.01028459611725588) {
        var91 = -0.006168213234592935;
    } else {
        var91 = 0.0060675296363376895;
    }
    var var92;
    if (input[3] > 1.0053494836418713) {
        var92 = 0.0053432377449714324;
    } else {
        var92 = -0.006511424427337;
    }
    var var93;
    if (input[2] > 28.709098242363986) {
        var93 = -0.004994304481844924;
    } else {
        var93 = 0.0066789351624375135;
    }
    var var94;
    if (input[4] > 0.010020014880123372) {
        var94 = 0.005832638937420309;
    } else {
        var94 = -0.006191512665720356;
    }
    var var95;
    if (input[4] > 0.009766837509547247) {
        var95 = -0.00489697505129032;
    } else {
        var95 = 0.007538935404956853;
    }
    var var96;
    if (input[4] > 0.010020014880123372) {
        var96 = 0.005790704696436641;
    } else {
        var96 = -0.006188274877010874;
    }
    var var97;
    if (input[4] > 0.01028459611725588) {
        var97 = -0.006260653755398403;
    } else {
        var97 = 0.0060006441375505615;
    }
    var var98;
    if (input[4] > 0.010020014880123372) {
        var98 = 0.005733658362918816;
    } else {
        var98 = -0.006180015958703345;
    }
    var var99;
    if (input[4] > 0.009766837509547247) {
        var99 = -0.004942219767726239;
    } else {
        var99 = 0.007491219809935525;
    }
    var var100;
    if (input[4] > 0.010020014880123372) {
        var100 = 0.0056982051313470665;
    } else {
        var100 = -0.006175103626341084;
    }
    var var101;
    if (input[4] > 0.009766837509547247) {
        var101 = -0.004928317859093392;
    } else {
        var101 = 0.007437599034390778;
    }
    var var102;
    if (input[4] > 0.010020014880123372) {
        var102 = 0.005663720988230025;
    } else {
        var102 = -0.00616830374017535;
    }
    var var103;
    if (input[0] > 58.821882995633864) {
        var103 = 0.005619767686824674;
    } else {
        var103 = -0.005742754122702883;
    }
    var var104;
    if (input[4] > 0.01028459611725588) {
        var104 = -0.006324924123865912;
    } else {
        var104 = 0.005935377979920858;
    }
    var var105;
    if (input[4] > 0.009766837509547247) {
        var105 = -0.004795783334003871;
    } else {
        var105 = 0.007168746860346829;
    }
    var var106;
    if (input[4] > 0.010020014880123372) {
        var106 = 0.005806029200582184;
    } else {
        var106 = -0.006407164095223593;
    }
    var var107;
    if (input[4] > 0.01028459611725588) {
        var107 = -0.0061033110063962795;
    } else {
        var107 = 0.005697991578733918;
    }
    var var108;
    if (input[4] > 0.010020014880123372) {
        var108 = 0.005744508548053404;
    } else {
        var108 = -0.006375925570826137;
    }
    var var109;
    if (input[2] > 28.709098242363986) {
        var109 = -0.004983757434793885;
    } else {
        var109 = 0.006318860959037983;
    }
    var var110;
    if (input[4] > 0.009766837509547247) {
        var110 = -0.0048373913083197325;
    } else {
        var110 = 0.00714633539491932;
    }
    var var111;
    if (input[4] > 0.010020014880123372) {
        var111 = 0.005707026959558229;
    } else {
        var111 = -0.0063605418450715795;
    }
    var var112;
    if (input[4] > 0.009766837509547247) {
        var112 = -0.004827557942927301;
    } else {
        var112 = 0.007114301933224522;
    }
    var var113;
    if (input[4] > 0.010020014880123372) {
        var113 = 0.005667645794785815;
    } else {
        var113 = -0.006333292528866601;
    }
    var var114;
    if (input[4] > 0.01028459611725588) {
        var114 = -0.006162572318898787;
    } else {
        var114 = 0.005679259834462443;
    }
    var var115;
    if (input[3] > 1.0053494836418713) {
        var115 = 0.004894310685286733;
    } else {
        var115 = -0.006376112904478118;
    }
    var var116;
    if (input[4] > 0.010020014880123372) {
        var116 = 0.005571192438970455;
    } else {
        var116 = -0.006277554227897601;
    }
    var var117;
    if (input[4] > 0.009766837509547247) {
        var117 = -0.0049123475895116505;
    } else {
        var117 = 0.007150533905370092;
    }
    var var118;
    if (input[4] > 0.010020014880123372) {
        var118 = 0.005541710610790836;
    } else {
        var118 = -0.0062549059261590035;
    }
    var var119;
    if (input[4] > 0.01028459611725588) {
        var119 = -0.006214254219918692;
    } else {
        var119 = 0.005668823937603625;
    }
    var var120;
    if (input[4] > 0.010020014880123372) {
        var120 = 0.005496801628772779;
    } else {
        var120 = -0.006229113559100068;
    }
    var var121;
    if (input[4] > 0.009766837509547247) {
        var121 = -0.004934541122624686;
    } else {
        var121 = 0.007136867664053544;
    }
    var var122;
    if (input[4] > 0.010020014880123372) {
        var122 = 0.0054716523072290265;
    } else {
        var122 = -0.006207886442709005;
    }
    var var123;
    if (input[4] > 0.009766837509547247) {
        var123 = -0.0049115238932037715;
    } else {
        var123 = 0.007098998773697948;
    }
    var var124;
    if (input[4] > 0.010020014880123372) {
        var124 = 0.005446601523860419;
    } else {
        var124 = -0.006186172167338527;
    }
    var var125;
    if (input[4] > 0.01028459611725588) {
        var125 = -0.006229044471462053;
    } else {
        var125 = 0.005646573207568874;
    }
    var var126;
    if (input[4] > 0.010020014880123372) {
        var126 = 0.005406843470985391;
    } else {
        var126 = -0.006162433087152782;
    }
    var var127;
    if (input[4] > 0.009766837509547247) {
        var127 = -0.004925933545443159;
    } else {
        var127 = 0.007082816536238182;
    }
    var var128;
    if (input[2] > 28.709098242363986) {
        var128 = -0.00487223848694707;
    } else {
        var128 = 0.006004035947491361;
    }
    var var129;
    if (input[4] > 0.010020014880123372) {
        var129 = 0.005391419323657533;
    } else {
        var129 = -0.006149448186356422;
    }
    var var130;
    if (input[4] > 0.01028459611725588) {
        var130 = -0.0062140887905798945;
    } else {
        var130 = 0.005609487536363621;
    }
    var var131;
    if (input[4] > 0.010020014880123372) {
        var131 = 0.0053539015752310515;
    } else {
        var131 = -0.006125697907930566;
    }
    var var132;
    if (input[4] > 0.009766837509547247) {
        var132 = -0.004923971957636733;
    } else {
        var132 = 0.00705087960401921;
    }
    var var133;
    if (input[0] > 58.821882995633864) {
        var133 = 0.005241996906276519;
    } else {
        var133 = -0.0056268063976226915;
    }
    var var134;
    if (input[4] > 0.010020014880123372) {
        var134 = 0.0053172375951430805;
    } else {
        var134 = -0.0060938970857751275;
    }
    var var135;
    if (input[4] > 0.009766837509547247) {
        var135 = -0.004924093648450736;
    } else {
        var135 = 0.0070414222048230364;
    }
    var var136;
    if (input[4] > 0.01028459611725588) {
        var136 = -0.006007293661128361;
    } else {
        var136 = 0.005407717490560502;
    }
    var var137;
    if (input[4] > 0.010020014880123372) {
        var137 = 0.005496634893150206;
    } else {
        var137 = -0.0063126491254165695;
    }
    var var138;
    if (input[4] > 0.009766837509547247) {
        var138 = -0.0047539091940997;
    } else {
        var138 = 0.006791199772727876;
    }
    var var139;
    if (input[4] > 0.010020014880123372) {
        var139 = 0.005463426516640657;
    } else {
        var139 = -0.006274951929528522;
    }
    var var140;
    if (input[4] > 0.01028459611725588) {
        var140 = -0.0060155889804464745;
    } else {
        var140 = 0.005397695481405111;
    }
    var var141;
    if (input[3] > 1.0053494836418713) {
        var141 = 0.004542543145450765;
    } else {
        var141 = -0.006092258135960278;
    }
    var var142;
    if (input[4] > 0.010020014880123372) {
        var142 = 0.005378467062468583;
    } else {
        var142 = -0.006207491705846365;
    }
    var var143;
    if (input[4] > 0.009766837509547247) {
        var143 = -0.004822369042524605;
    } else {
        var143 = 0.006848051185102926;
    }
    var var144;
    if (input[2] > 28.709098242363986) {
        var144 = -0.0048012151930237066;
    } else {
        var144 = 0.005831570480283865;
    }
    var var145;
    if (input[4] > 0.010020014880123372) {
        var145 = 0.005360931097761506;
    } else {
        var145 = -0.0061819898361825595;
    }
    var var146;
    if (input[4] > 0.01028459611725588) {
        var146 = -0.006054851311175232;
    } else {
        var146 = 0.005410611168761391;
    }
    var var147;
    if (input[4] > 0.010020014880123372) {
        var147 = 0.005320347663478954;
    } else {
        var147 = -0.006148069778790259;
    }
    var var148;
    if (input[4] > 0.009766837509547247) {
        var148 = -0.004824084145929438;
    } else {
        var148 = 0.006838010313121034;
    }
    var var149;
    if (input[4] > 0.010020014880123372) {
        var149 = 0.005298179099335109;
    } else {
        var149 = -0.0061190557667606645;
    }
    var var150;
    if (input[4] > 0.009766837509547247) {
        var150 = -0.0047990928575586;
    } else {
        var150 = 0.00680869246419263;
    }
    var var151;
    if (input[0] > 58.821882995633864) {
        var151 = 0.004913521770276533;
    } else {
        var151 = -0.005327653142010997;
    }
    var var152;
    if (input[2] > 28.709098242363986) {
        var152 = -0.004653094276455896;
    } else {
        var152 = 0.005637156618068006;
    }
    var var153;
    if (input[4] > 0.010020014880123372) {
        var153 = 0.005267427515458362;
    } else {
        var153 = -0.0060831865971964025;
    }
    var var154;
    if (input[0] > 58.821882995633864) {
        var154 = 0.00473632451417682;
    } else {
        var154 = -0.005145090106187611;
    }
    var var155;
    if (input[4] > 0.01028459611725588) {
        var155 = -0.006094593336882468;
    } else {
        var155 = 0.005433104212026768;
    }
    var var156;
    if (input[4] > 0.010020014880123372) {
        var156 = 0.005217526561410763;
    } else {
        var156 = -0.006042489549215813;
    }
    var var157;
    if (input[2] > 28.709098242363986) {
        var157 = -0.0045303645869669;
    } else {
        var157 = 0.005460988951012699;
    }
    var var158;
    if (input[4] > 0.009766837509547247) {
        var158 = -0.004833281314815193;
    } else {
        var158 = 0.0068389877655314546;
    }
    var var159;
    if (input[4] > 0.010020014880123372) {
        var159 = 0.005207685344247263;
    } else {
        var159 = -0.006022530851561923;
    }
    var var160;
    if (input[3] > 1.0053494836418713) {
        var160 = 0.004129758423200796;
    } else {
        var160 = -0.005584643922898133;
    }
    var var161;
    if (input[4] > 0.01028459611725588) {
        var161 = -0.006112825622335604;
    } else {
        var161 = 0.005435231894356598;
    }
    var var162;
    if (input[4] > 0.009766837509547247) {
        var162 = -0.004693123522921283;
    } else {
        var162 = 0.006626333218609164;
    }
    var var163;
    if (input[2] > 28.709098242363986) {
        var163 = -0.004366893016004727;
    } else {
        var163 = 0.00526722252660522;
    }
    var var164;
    if (input[4] > 0.010020014880123372) {
        var164 = 0.005358003930280032;
    } else {
        var164 = -0.006207203360538007;
    }
    var var165;
    if (input[4] > 0.009766837509547247) {
        var165 = -0.004664352728735818;
    } else {
        var165 = 0.0065987120851151776;
    }
    var var166;
    if (input[4] > 0.010020014880123372) {
        var166 = 0.005327033010013764;
    } else {
        var166 = -0.00616708489888183;
    }
    var var167;
    if (input[4] > 0.01028459611725588) {
        var167 = -0.005911888365140552;
    } else {
        var167 = 0.005263583759591572;
    }
    var var168;
    if (input[4] > 0.010020014880123372) {
        var168 = 0.005283737093762564;
    } else {
        var168 = -0.0061273858178932;
    }
    var var169;
    if (input[4] > 0.009766837509547247) {
        var169 = -0.00468608649434711;
    } else {
        var169 = 0.006616338962464391;
    }
    var var170;
    if (input[2] > 34.00926297049789) {
        var170 = 0.005303093523987535;
    } else {
        var170 = -0.004345388568566235;
    }
    var var171;
    if (input[2] > 28.709098242363986) {
        var171 = -0.004323598474396662;
    } else {
        var171 = 0.00521704064836558;
    }
    var var172;
    if (input[4] > 0.010020014880123372) {
        var172 = 0.005275266610605141;
    } else {
        var172 = -0.0061013725883827035;
    }
    var var173;
    if (input[2] > 34.00926297049789) {
        var173 = 0.005265524304384928;
    } else {
        var173 = -0.0043114729671424;
    }
    var var174;
    if (input[4] > 0.009766837509547247) {
        var174 = -0.0046551779351467195;
    } else {
        var174 = 0.006592148991274817;
    }
    var var175;
    if (input[3] > 1.0053494836418713) {
        var175 = 0.004065312624550544;
    } else {
        var175 = -0.005487119267843142;
    }
    var var176;
    if (input[4] > 0.010020014880123372) {
        var176 = 0.005224568841654418;
    } else {
        var176 = -0.006044697706191319;
    }
    var var177;
    if (input[4] > 0.01028459611725588) {
        var177 = -0.005925491098181416;
    } else {
        var177 = 0.005273779443342494;
    }
    var var178;
    if (input[4] > 0.010020014880123372) {
        var178 = 0.005186580100125927;
    } else {
        var178 = -0.006010845637988437;
    }
    var var179;
    if (input[4] > 0.009766837509547247) {
        var179 = -0.004709503610199985;
    } else {
        var179 = 0.006641494902147703;
    }
    var var180;
    if (input[4] > 0.010020014880123372) {
        var180 = 0.005165298966761501;
    } else {
        var180 = -0.005980725219594164;
    }
    var var181;
    if (input[4] > 0.01028459611725588) {
        var181 = -0.005913682225030508;
    } else {
        var181 = 0.005257660192793986;
    }
    var var182;
    if (input[2] > 28.709098242363986) {
        var182 = -0.004343809220091341;
    } else {
        var182 = 0.005213585375081254;
    }
    var var183;
    if (input[2] > 34.00926297049789) {
        var183 = 0.005176800176683881;
    } else {
        var183 = -0.004247038583907288;
    }
    var var184;
    if (input[4] > 0.010020014880123372) {
        var184 = 0.0051482618208734425;
    } else {
        var184 = -0.005958127476018201;
    }
    var var185;
    if (input[2] > 28.709098242363986) {
        var185 = -0.004305973409554291;
    } else {
        var185 = 0.0051703265067014875;
    }
    var var186;
    if (input[4] > 0.009766837509547247) {
        var186 = -0.004695221317740708;
    } else {
        var186 = 0.006627181462235789;
    }
    var var187;
    if (input[4] > 0.010020014880123372) {
        var187 = 0.005134856655092986;
    } else {
        var187 = -0.005933589514695913;
    }
    var var188;
    if (input[2] > 34.00926297049789) {
        var188 = 0.005159879149086291;
    } else {
        var188 = -0.00422404752644095;
    }
    var var189;
    if (input[4] > 0.009766837509547247) {
        var189 = -0.004670060074873006;
    } else {
        var189 = 0.006602521221300427;
    }
    var var190;
    if (input[4] > 0.010020014880123372) {
        var190 = 0.005125325675115097;
    } else {
        var190 = -0.0059110274115701964;
    }
    var var191;
    if (input[4] > 0.01028459611725588) {
        var191 = -0.005869072739682161;
    } else {
        var191 = 0.00523251698202417;
    }
    var var192;
    if (input[4] > 0.010020014880123372) {
        var192 = 0.00509023744816097;
    } else {
        var192 = -0.005881252015642943;
    }
    var var193;
    if (input[4] > 0.009766837509547247) {
        var193 = -0.004678246904204192;
    } else {
        var193 = 0.006600778257307486;
    }
    var var194;
    if (input[4] > 0.010020014880123372) {
        var194 = 0.005071870415341286;
    } else {
        var194 = -0.005855353128779844;
    }
    var var195;
    if (input[4] > 0.009766837509547247) {
        var195 = -0.0046514837209639375;
    } else {
        var195 = 0.0065703725566905145;
    }
    var var196;
    if (input[4] > 0.010020014880123372) {
        var196 = 0.005053129501034685;
    } else {
        var196 = -0.005829526992774443;
    }
    var var197;
    if (input[4] > 0.01028459611725588) {
        var197 = -0.0058697591570520576;
    } else {
        var197 = 0.005231214690509846;
    }
    var var198;
    if (input[4] > 0.010020014880123372) {
        var198 = 0.005021475869320776;
    } else {
        var198 = -0.0058032823849242755;
    }
    var var199;
    if (input[4] > 0.009766837509547247) {
        var199 = -0.004655279512218879;
    } else {
        var199 = 0.006563487477906984;
    }
    var var200;
    var200 = sigmoid(var0 + var1 + var2 + var3 + var4 + var5 + var6 + var7 + var8 + var9 + var10 + var11 + var12 + var13 + var14 + var15 + var16 + var17 + var18 + var19 + var20 + var21 + var22 + var23 + var24 + var25 + var26 + var27 + var28 + var29 + var30 + var31 + var32 + var33 + var34 + var35 + var36 + var37 + var38 + var39 + var40 + var41 + var42 + var43 + var44 + var45 + var46 + var47 + var48 + var49 + var50 + var51 + var52 + var53 + var54 + var55 + var56 + var57 + var58 + var59 + var60 + var61 + var62 + var63 + var64 + var65 + var66 + var67 + var68 + var69 + var70 + var71 + var72 + var73 + var74 + var75 + var76 + var77 + var78 + var79 + var80 + var81 + var82 + var83 + var84 + var85 + var86 + var87 + var88 + var89 + var90 + var91 + var92 + var93 + var94 + var95 + var96 + var97 + var98 + var99 + var100 + var101 + var102 + var103 + var104 + var105 + var106 + var107 + var108 + var109 + var110 + var111 + var112 + var113 + var114 + var115 + var116 + var117 + var118 + var119 + var120 + var121 + var122 + var123 + var124 + var125 + var126 + var127 + var128 + var129 + var130 + var131 + var132 + var133 + var134 + var135 + var136 + var137 + var138 + var139 + var140 + var141 + var142 + var143 + var144 + var145 + var146 + var147 + var148 + var149 + var150 + var151 + var152 + var153 + var154 + var155 + var156 + var157 + var158 + var159 + var160 + var161 + var162 + var163 + var164 + var165 + var166 + var167 + var168 + var169 + var170 + var171 + var172 + var173 + var174 + var175 + var176 + var177 + var178 + var179 + var180 + var181 + var182 + var183 + var184 + var185 + var186 + var187 + var188 + var189 + var190 + var191 + var192 + var193 + var194 + var195 + var196 + var197 + var198 + var199);
    return [1.0 - var200, var200];
}
function sigmoid(x) {
    if (x < 0.0) {
        var z = Math.exp(x);
        return z / (1.0 + z);
    }
    return 1.0 / (1.0 + Math.exp(-x));
}


module.exports = { scoreShort };
